svm_type c_svc
kernel_type linear
nr_class 2
total_sv 1749
rho 1.97353
label 1 -1
nr_sv 873 876
SV
0.526315789 1:-0.730337 2:-0.652174 3:-0.0962795 4:0.217391 5:-0.652174 6:0.130435 7:-1 8:0.0874571 9:-0.913043 10:-0.826087 11:0.223253 12:-0.34058 13:-0.587302 14:-0.000483019 15:0.0395836 16:0.121683 17:0.196819 18:0.0366583 19:0.33227 20:-0.0434782 21:0.047229 22:0.218991 23:0.391304 24:0.263035 25:-0.159534 26:-0.0190742 27:-0.0373178 28:-0.0993789 29:1 30:-0.269565 31:-0.304348 32:-0.453416 33:1 34:0.0434782 35:-0.906832 36:-0.73913 37:-0.652174 38:-0.347826 39:0.0434782 40:-0.762846 41:-0.304348 42:-0.347826 43:-0.217391 44:-0.545455 45:-1 46:-0.714286 47:-0.636364 48:-0.913043 49:-0.826087 50:-0.865079 51:0.391304 
0.526315789 1:-0.932584 2:-1 3:-0.219254 4:-0.428571 5:-1 6:0.857143 7:-0.857143 8:0.107429 9:0.285714 10:-0.857143 11:0.0850722 12:-0.380952 13:-0.84127 14:-0.241 15:0.171672 16:0.351405 17:0.338778 18:0.13113 19:0.262516 20:0.285714 21:-0.0759573 22:0.0486897 23:0.428571 24:0.323488 25:0.183425 26:-0.0129031 27:0.162719 28:0.331633 29:1 30:1.4e-07 31:-0.714286 32:-0.77551 33:0.571429 34:-0.428571 35:-0.846939 36:-1 37:-0.714286 38:-0.387755 39:-0.428571 40:-0.61039 41:-0.428571 42:-0.464286 43:0.142857 44:-0.076923 45:-1 46:-1 47:0.230769 48:0.285714 49:-0.857143 50:-1 51:0.428571 
0.526315789 1:-0.011236 2:-1 3:-0.251983 4:0.272727 5:-0.854545 6:0.672727 7:-0.963636 8:-0.28464 9:-0.890909 10:-0.818182 11:0.0868233 12:-0.527273 13:-0.333333 14:-0.0218496 15:-0.212019 16:0.000419668 17:-0.0339977 18:-0.18976 19:0.134403 20:0.2 21:0.0343616 22:-0.234338 23:0.963636 24:0.0373047 25:0.0398931 26:-0.194721 27:-0.212183 28:0.167533 29:0.890909 30:-0.44 31:-0.745455 32:-0.771429 33:0.890909 34:-0.381818 35:-0.883117 36:-0.854545 37:-0.963636 38:-0.532468 39:-0.381818 40:-0.603306 41:-0.418182 42:-0.409091 43:-0.163636 44:-0.444444 45:-1 46:-1 47:-0.074074 48:-0.890909 49:-0.818182 50:-1 51:0.381818 
0.526315789 1:-0.932584 2:-1 3:0.00343831 5:-1 6:0.571429 7:-1 8:-0.340093 9:-0.714286 10:-0.142857 11:0.470305 12:-0.535714 13:-0.746032 14:0.353502 15:-0.0340284 16:-0.0284922 17:0.0903798 18:-0.522262 19:-0.0571716 20:-1 21:0.452894 22:-0.115921 23:-1 24:0.627738 25:-0.635736 26:-0.283871 27:-0.307881 28:0.0357143 29:0.857143 30:-0.8 31:-1 32:-0.551021 33:0.857143 35:0.683674 36:-0.714286 37:-0.857143 38:-0.540816 40:-1 41:-0.0476189 42:-0.464286 43:-0.857143 44:-1 45:-1 46:-1 47:-1 48:-0.714286 49:0.571429 50:-1 51:0.428571 
0.526315789 1:-0.438202 2:-0.777778 3:-0.357102 4:-0.111111 5:-0.777778 6:0.388889 7:-0.944444 8:-0.151907 9:-0.444444 10:-0.833333 11:0.101124 12:-0.518519 13:-0.365079 14:-0.161621 15:-0.0214051 16:0.290397 17:0.199726 18:0.0851069 19:0.215827 20:0.333333 21:-0.152343 22:-0.00136263 23:0.611111 24:0.11244 25:-0.0744135 26:0.310036 27:-0.0757565 28:-0.194444 29:0.833333 30:0.0111111 31:0.166667 32:-0.738095 33:0.833333 34:-0.388889 35:-0.821429 36:-0.611111 37:-0.944444 38:-0.52381 39:-0.388889 40:-0.772727 41:-0.555555 42:-0.0277777 43:-0.0555556 44:-0.542857 45:-1 46:-0.823529 47:-0.542857 48:-0.5 49:-0.833333 50:-0.5 51:0.333333 
0.526315789 1:-0.797753 2:-1 3:-0.1126 5:-0.2 6:0.6 7:-0.9 8:0.0145945 9:-0.9 10:-0.8 11:0.325843 12:-0.133333 13:-0.619048 14:0.143714 15:-0.101055 16:-0.078024 17:-0.00789656 18:-0.269403 19:0.156005 20:-0.4 21:0.18753 22:-0.157435 23:1 24:0.0559307 25:-0.213667 26:-0.350322 27:-0.297672 28:0.139286 29:1 30:-0.44 31:0.1 32:-0.685714 33:0.9 34:0.1 35:-0.785714 36:-0.9 37:-0.7 38:-0.142857 39:0.1 40:-0.727273 41:-0.0666667 42:-0.75 43:-0.5 44:-0.368421 45:-1 46:-1 47:-0.263158 48:-0.9 49:-0.8 50:-1 51:0.2 
0.526315789 1:-0.797753 2:-1 3:-0.134553 5:-0.2 6:0.6 7:-0.9 8:0.0145945 9:-0.9 10:-0.8 11:0.258427 12:-0.133333 13:-0.650794 14:0.0985717 15:-0.100612 16:-0.0415512 17:0.0124762 18:-0.217066 19:0.192563 20:-0.4 21:0.0817253 22:-0.142259 23:1 24:0.0231325 25:-0.130577 26:-0.269032 27:-0.23479 28:0.139286 29:1 30:-0.44 31:0.1 32:-0.685714 33:0.9 35:-0.785714 36:-0.9 37:-0.3 38:-0.142857 40:-0.727273 41:-0.2 42:-0.75 43:-0.4 44:-0.473684 45:-1 46:-1 47:-0.368421 48:-0.9 49:-0.8 50:-1 51:0.2 
0.526315789 1:-0.707865 2:-0.833333 3:-0.132017 4:0.166667 5:-0.666667 6:0.25 7:-0.833333 8:-0.135282 9:-0.916667 10:-0.833333 11:0.269663 12:-0.548611 13:-0.587302 14:-0.0495503 15:-0.0654637 16:0.0153124 17:0.0285058 18:-0.200325 19:0.115664 20:0.583333 21:0.0302821 22:-0.0603815 23:0.833333 24:0.120604 25:-0.0518136 26:-0.275806 27:-0.180958 28:0.0357143 29:0.916667 30:-0.416667 31:-0.666667 32:-0.607143 33:0.916667 34:-0.0833334 35:-0.821429 36:-0.916667 37:-0.75 38:-0.553571 39:-0.0833334 40:-0.772727 41:-0.222222 42:-0.375 43:-0.333333 44:-0.304348 45:-1 46:-1 47:-0.0434782 48:-0.916667 49:-0.833333 50:-1 51:0.583333 
0.526315789 1:-0.168539 2:-0.833333 3:-0.0105272 4:-0.166667 5:-1 6:0.708333 7:-1 8:0.278693 9:-0.958333 10:-0.458333 11:0.185393 12:-0.59375 13:-0.333333 14:0.103862 15:-0.210193 16:-0.0570175 17:-0.0461151 18:-0.298119 19:0.124665 20:0.25 21:0.0674759 22:-0.185914 23:0.958333 24:0.0148265 25:-0.187593 26:-0.151613 27:-0.196143 28:-0.0505953 29:0.916667 30:-0.533333 31:-0.916667 32:-0.738095 33:0.916667 34:-0.291667 35:-0.776786 36:-0.958333 37:-0.916667 38:-0.598214 39:-0.291667 40:-0.772727 41:-0.388889 42:-0.635417 43:-0.291667 44:-0.659574 45:-0.354037 46:-0.869565 47:-0.361702 48:-0.958333 49:-0.458333 50:-1 51:0.375 
0.262500251464013 1:-0.41573 2:-0.891892 3:-0.13911 4:-0.513514 5:-1 6:0.351351 7:-0.891892 8:0.372745 9:-0.837838 10:-0.945946 11:0.0616459 12:-0.648649 13:-0.68254 14:-0.139529 15:-0.191353 16:0.125253 17:0.0382269 18:0.00176514 19:0.210515 20:0.675676 21:-0.218947 22:-0.206701 23:1 24:-0.067284 25:0.186616 26:0.0491719 27:-0.0763466 28:-0.0482624 29:0.945946 30:-0.47027 31:-0.675676 32:-0.830116 33:0.945946 34:-0.621622 35:-0.942085 36:-0.837838 37:-0.891892 38:-0.65251 39:-0.621622 40:-0.77887 41:-0.63964 42:-0.391892 43:0.189189 44:-0.666667 45:-1 46:-0.828571 47:-0.277778 48:-0.837838 49:-0.945946 50:-1 51:0.675676 
0.526315789 1:-0.438202 2:-0.888889 3:-0.158526 4:-0.5 5:-1 6:0.388889 7:-0.888889 8:0.372745 9:-0.833333 10:-0.944444 11:0.0636704 12:-0.638889 13:-0.68254 14:-0.134975 15:-0.178195 16:0.115728 17:0.0389028 18:-0.0339082 19:0.212903 20:0.611111 21:-0.224096 22:-0.18123 23:0.944444 24:-0.0151085 25:0.178994 26:0.00645174 27:-0.0610679 28:-0.0218254 29:1 30:-0.455556 31:-0.666667 32:-0.825397 33:1 34:-0.611111 35:-0.940476 36:-0.833333 37:-0.888889 38:-0.642857 39:-0.611111 40:-0.772727 41:-0.62963 42:-0.375 43:0.111111 44:-0.657143 45:-1 46:-0.823529 47:-0.314286 48:-0.833333 49:-0.944444 50:-1 51:0.611111 
0.526315789 1:-0.438202 2:-0.888889 3:-0.177942 4:-0.5 5:-1 6:0.388889 7:-0.888889 8:0.240979 9:-0.833333 10:-0.944444 11:0.0636704 12:-0.638889 13:-0.68254 14:-0.190619 15:-0.156781 16:0.122653 17:0.0504841 18:0.00979439 19:0.273528 20:0.722222 21:-0.246797 22:-0.153438 23:0.944444 24:-0.0044597 25:0.220587 26:-0.0211469 27:-0.0582891 28:0.208333 29:1 30:-0.377778 31:-0.666667 32:-0.825397 33:1 34:-0.611111 35:-0.940476 36:-0.833333 37:-0.888889 38:-0.642857 39:-0.611111 40:-0.772727 41:-0.62963 42:-0.305555 43:0.111111 44:-0.6 45:-0.781513 46:-0.823529 47:-0.314286 48:-0.833333 49:-0.944444 50:-1 51:0.611111 
0.526315789 1:0.41573 2:-0.891892 3:-0.112802 4:0.405405 5:-1 6:0.108108 7:-0.810811 8:0.0921112 9:-0.972973 10:-0.945946 11:0.0798664 12:-0.297297 13:0.015873 14:-0.0129487 15:-0.317682 16:-0.153627 17:-0.197897 18:-0.369427 19:-0.0284902 20:0.378378 21:-0.0193664 22:-0.392037 23:0.918919 24:-0.178146 25:-0.0433337 26:-0.183958 27:-0.244755 28:0.0637066 29:1 30:-0.697297 31:-0.351351 32:-0.745174 33:1 34:-0.486486 35:-0.942085 36:-0.972973 37:-0.918919 38:-0.305019 39:-0.486486 40:-0.77887 41:-0.603604 42:-0.493243 43:-0.216216 44:-0.643836 45:-0.690476 46:-1 47:-0.260274 48:-0.972973 49:-0.945946 50:-1 51:0.594595 
0.526315789 1:-0.393258 2:-0.894737 3:-0.338704 4:-0.263158 5:-0.789474 6:-0.0526316 7:-0.842105 8:-0.285316 9:-0.947368 10:-0.894737 11:0.0952099 12:-0.429825 13:-0.396825 14:-0.224772 15:-0.126869 16:0.101716 17:0.015643 18:-0.0578529 19:0.365526 20:0.421053 21:-0.326978 22:-0.0589517 23:0.842105 24:0.00815695 25:0.0760797 26:0.227504 27:-0.113387 28:-0.236842 29:1 30:-0.189474 31:-0.631579 32:-0.75188 33:1 34:-0.473684 35:-0.943609 36:-0.736842 37:-0.631579 38:-0.548872 39:-0.473684 40:-0.92823 41:-0.719298 42:-0.0789473 43:-0.105263 44:-0.621622 45:-0.587302 46:-1 47:-0.675676 48:-0.947368 49:-0.894737 50:-1 51:0.473684 
0.526315789 1:-0.438202 2:-0.888889 3:-0.217395 4:0.0555556 5:-0.777778 6:0.277778 7:-0.777778 8:-0.406649 9:-0.888889 10:-0.944444 11:0.0636704 12:-0.277778 13:-0.428571 14:-0.0119321 15:-0.0519262 16:0.0759721 17:0.0628552 18:-0.160686 19:0.0102667 20:0.388889 21:-0.0247824 22:-0.125021 23:0.944444 24:-0.000437025 25:-0.0922049 26:-0.0838708 27:-0.0975908 28:0.208333 29:1 30:-0.377778 31:-0.833333 32:-0.650794 33:0.722222 34:-0.333333 35:-0.940476 36:-0.888889 37:-0.833333 38:-0.285714 39:-0.333333 40:-0.69697 41:-0.555555 42:-0.305555 43:-0.277778 44:-0.485714 45:-0.781513 46:-0.823529 47:-0.371429 48:-0.888889 49:-0.944444 50:-0.916667 51:0.555556 
0.526315789 1:-0.955056 2:-0.384615 3:-0.202238 4:-0.076923 5:-1 6:0.846154 7:-1 8:-0.538326 9:-0.538462 10:-0.846154 11:-0.011236 12:-1 13:-0.904762 14:-0.861237 15:0.388717 16:0.658498 17:0.671364 18:0.530396 19:0.714555 20:0.230769 21:-0.884123 22:0.75284 23:0.538462 24:0.706422 25:0.67806 26:0.468486 27:0.86434 28:0.274725 29:1 30:0.292308 31:-1 32:-0.516483 33:-1 34:-0.538462 35:-0.835165 36:-0.538462 37:-1 38:-1 39:-0.538462 40:-1 41:-1 42:-0.423077 43:0.538462 44:-1 45:-1 46:0.0909093 47:-1 48:-0.538462 49:-0.846154 50:-0.742424 51:0.538462 
0.526315789 1:-0.52809 2:-0.875 3:-0.0754328 4:-0.125 5:-1 6:0.8125 7:-1 8:-0.283671 9:-0.875 10:-0.375 11:0.199438 12:-0.526042 13:-0.301587 14:0.356905 15:-0.170503 16:-0.200427 17:-0.0707914 18:-0.50569 19:0.148838 20:0.4375 21:0.342681 22:-0.285098 23:0.9375 24:0.0150931 25:-0.543271 26:-0.143145 27:-0.45488 28:-0.158482 29:0.8125 30:-0.9125 31:-0.9375 32:-0.508929 33:0.5625 34:0.25 35:-0.732143 36:-0.875 37:-0.9375 38:-0.598214 39:0.25 40:-0.744318 41:-0.333333 42:-0.609375 43:-0.6875 44:-0.935484 45:-0.752381 46:-1 47:-0.806452 48:-0.875 49:-0.125 50:-1 51:0.4375 
0.526315789 1:-1 2:-0.636364 3:-0.241451 4:-0.272727 5:-0.272727 6:0.272727 7:-1 8:-0.568447 9:-0.454545 10:-0.818182 11:0.111338 12:-1 13:-0.809524 14:-0.575351 15:0.399066 16:0.730043 17:0.666858 18:0.39241 19:0.454761 20:-0.454545 21:-0.595648 22:0.595299 23:-0.454545 24:0.780472 25:0.22968 26:0.593548 27:0.349345 28:-0.246753 29:0.636364 30:0.272727 31:-1 32:-0.428571 33:0.636364 34:-0.272727 35:-0.805195 36:-0.454545 37:0.636364 38:-1 39:-0.272727 40:-1 41:-0.757576 42:0.590909 43:-0.090909 44:-0.8 45:-0.174603 46:0.333333 47:-0.8 48:-0.454545 49:-0.818182 50:-1 51:0.454545 
0.526315789 1:-0.820225 2:-0.789474 3:-0.202256 4:-0.684211 5:-1 6:0.894737 7:-0.684211 8:-0.585964 9:-0.894737 10:-0.684211 11:-0.011236 12:-0.315789 13:-0.873016 14:-0.437118 15:-0.174438 16:0.143996 17:0.0313527 18:0.0483998 19:0.287979 20:0.0526316 21:-0.665452 22:-0.140898 23:0.684211 24:-0.103711 25:0.612707 26:0.113413 27:0.135587 28:-0.018797 29:1 30:-0.557895 31:-1 32:-0.834586 33:-1 34:-0.894737 35:-0.887218 36:0.0526316 37:-0.368421 38:-0.323308 39:-0.894737 40:-1 41:-1 42:-0.736842 43:0.473684 44:-0.888889 45:-1 46:-1 47:-0.555556 48:-0.894737 49:-0.684211 50:-1 51:0.263158 
0.526315789 1:-0.52809 2:-0.75 3:-0.177825 4:0.125 5:-1 6:0.6875 7:-0.8125 8:-0.051035 9:-0.9375 10:-0.875 11:0.0730337 12:0.21875 13:-0.746032 14:-0.403985 15:-0.202624 16:0.052343 17:-0.041476 18:0.030677 19:0.346167 20:0.3125 21:-0.48719 22:0.0212379 23:0.9375 24:-0.0788826 25:0.409892 26:-0.0274192 27:0.0895391 28:0.488839 29:1 30:-0.2125 31:0.375 32:-0.803571 33:0.625 34:-0.6875 35:-0.866071 36:-0.9375 37:-0.5625 38:0.205357 39:-0.6875 40:-0.914773 41:-0.75 42:-0.375 43:0.1875 44:-0.677419 45:-0.752381 46:-0.8 47:-0.354839 48:-0.9375 49:-0.875 50:-1 51:0.3125 
0.526315789 1:-0.820225 2:-0.789474 3:-0.180302 4:-0.473684 5:-0.157894 6:0.894737 7:-0.789474 8:-0.200844 9:-0.894737 10:-0.789474 11:0.059728 12:-0.429825 13:-0.777778 14:-0.443058 15:-0.117075 16:0.148856 17:0.0597797 18:0.0261585 19:0.168164 20:0.263158 21:-0.639593 22:0.0632278 23:0.684211 24:-0.179037 25:0.37947 26:0.160951 27:0.195762 28:0.526316 29:1 30:-0.263158 31:-1 32:-0.669173 33:-0.473684 34:-0.473684 35:-0.887218 36:-0.684211 37:-0.473684 38:-0.43609 39:-0.473684 40:-1 41:-0.859649 42:-0.342105 43:0.0526316 44:-0.777778 45:-0.563025 46:-0.294117 47:-0.888889 48:-0.894737 49:-0.789474 50:-1 51:0.263158 
0.526315789 1:-0.438202 2:-0.555556 3:-0.296776 4:0.111111 5:-1 6:0.555556 7:-0.777778 8:-0.418345 9:-0.944444 10:-0.888889 11:0.138577 12:-0.277778 13:-0.269841 14:-0.170242 15:0.0177309 16:0.257566 17:0.159981 18:0.0569297 19:0.187207 20:0.388889 21:-0.247743 22:0.0292398 23:1 24:-0.0312 25:-0.0539774 26:0.34767 27:-0.0979879 28:-0.136905 29:0.944444 30:-0.3 31:0.388889 32:-0.47619 33:0.944444 34:-0.333333 35:-0.940476 36:-0.666667 37:-0.833333 38:-0.285714 39:-0.333333 40:-0.924242 41:-0.62963 42:0.111111 43:0.0555556 44:-0.428571 45:-1 46:-0.823529 47:-0.2 48:-0.944444 49:-0.888889 50:-0.833333 
0.526315789 1:-0.797753 2:-1 3:-0.244897 4:0.3 5:-0.6 6:-0.3 7:-0.9 8:-0.352557 9:-0.6 10:-0.8 11:-0.0786517 12:-0.891667 13:-0.746032 14:-0.142656 15:-0.0204205 16:0.162973 17:0.157928 18:-0.0047948 19:0.162098 20:0.1 21:-0.306227 22:0.00894226 23:1 24:0.00268689 25:0.0641673 26:0.105807 27:0.0831972 28:-0.378571 29:1 30:-0.44 31:-0.9 32:-0.371429 33:0.7 34:-0.4 35:-0.785714 36:-0.6 37:-0.9 38:-0.892857 39:-0.4 40:-0.727273 41:-0.866667 42:-0.125 43:-0.2 44:-0.578947 45:-1 46:-0.333333 47:-0.473684 48:-0.6 49:-0.8 50:-1 51:0.3 
0.526315789 1:-0.842697 2:-0.777778 3:-0.177824 5:-0.555556 6:0.444444 7:-0.777778 8:-0.475934 9:-0.888889 10:-0.666667 11:0.138577 12:-0.518519 13:-0.777778 14:-0.28153 15:-0.0536491 16:0.152662 17:0.122341 18:0.0728257 19:0.297684 20:0.666667 21:-0.324091 22:0.0386079 23:0.888889 24:0.14486 25:0.315796 26:-0.0387095 27:0.0802595 28:0.0357143 29:1 30:-0.222222 31:0.333333 32:-0.825397 33:0.222222 34:-0.444444 35:-0.880952 36:0.111111 37:-0.777778 38:-0.52381 39:-0.444444 40:-0.848485 41:-0.555555 42:-0.583333 43:0.111111 44:-0.411765 45:-0.535714 46:-0.625 47:-0.176471 48:-0.888889 49:-0.666667 50:-1 51:0.666667 
0.526315789 1:-0.842697 2:-0.777778 3:-0.158408 5:-0.555556 6:0.444444 7:-0.777778 8:-0.436803 9:-0.888889 10:-0.666667 11:0.138577 12:-0.518519 13:-0.777778 14:-0.206293 15:-0.0536491 16:0.148559 17:0.121815 18:0.0858285 19:0.296454 20:0.666667 21:-0.284363 22:0.0436042 23:0.888889 24:0.108417 25:0.231647 26:0.00645174 27:0.0794656 28:0.0357143 29:1 30:-0.222222 31:0.333333 32:-0.825397 33:0.222222 34:-0.444444 35:-0.880952 36:0.111111 37:-0.777778 38:-0.52381 39:-0.444444 40:-0.848485 41:-0.555555 42:-0.583333 43:0.111111 44:-0.411765 45:-0.535714 46:-0.625 47:-0.176471 48:-0.888889 49:-0.666667 50:-1 51:0.666667 
0.526315789 1:-0.662921 2:-1 3:-0.217019 4:0.153846 5:-0.692308 6:0.384615 7:-0.846154 8:-0.0285956 9:-0.923077 10:-0.846154 11:0.144339 12:-0.333333 13:-0.619048 14:-0.192789 15:0.0472296 16:0.274948 17:0.228923 18:0.0875514 19:0.248425 20:0.461538 21:-0.293822 22:0.0964978 23:0.923077 24:0.209044 25:0.0848401 26:0.14541 27:0.0475233 28:0.0357143 29:0.692308 30:-0.0307693 31:-0.384615 32:-0.758242 33:0.615385 34:-0.461538 35:-0.835165 36:-0.923077 37:-0.461538 38:-0.340659 39:-0.461538 40:-0.895105 41:-0.589743 42:-0.0384615 43:-0.153846 44:-0.52 45:-0.0714287 46:-0.75 47:-0.36 48:-0.923077 49:-0.846154 50:-1 51:0.461538 
0.526315789 1:0.101124 2:-0.8 3:-0.483497 4:0.166667 5:-1 6:0.466667 7:-0.833333 8:0.0710641 9:-0.933333 10:-0.733333 11:-0.0786517 12:-0.458333 13:-0.206349 14:0.158292 15:-0.351525 16:-0.158356 17:-0.190619 18:-0.322929 19:-0.0558644 20:0.266667 21:0.0659153 22:-0.263481 23:0.933333 24:0.0095021 25:-0.13 26:-0.308172 27:-0.270519 28:0.0357143 29:1 30:-0.533333 31:-0.966667 32:-0.738095 33:1 34:-0.566667 35:-0.678571 36:-0.933333 37:-0.966667 38:-0.464286 39:-0.566667 40:-0.5 41:-0.644445 42:-0.333333 43:-0.466667 44:-0.389831 45:-1 46:-1 47:-0.288136 48:-0.933333 49:-0.7 50:-1 51:0.533333 
0.526315789 1:-0.258427 2:-0.909091 3:-0.523853 4:0.136364 5:-1 6:0.727273 7:-1 8:-0.0940926 9:-0.909091 10:-0.863636 11:-0.0418795 12:-0.0643939 13:-0.365079 14:-0.123291 15:-0.202272 16:0.105515 17:-0.000746731 18:-0.0541146 19:0.251831 20:0.181818 21:-0.219416 22:-0.172202 23:0.545455 24:-0.153327 25:0.0528367 26:0.224047 27:-0.171322 28:0.12987 29:1 30:-0.3 31:-0.954545 32:-0.642857 33:0.272727 34:-0.545455 35:-0.853896 36:-0.909091 37:-0.954545 38:-0.172078 39:-0.545455 40:-0.690083 41:-0.757576 42:-0.034091 44:-0.581395 45:-1 46:-0.714286 47:-0.395349 48:-0.909091 49:-0.863636 50:-0.865079 51:0.318182 
0.526315789 1:-0.303371 2:-1 3:-0.408236 4:0.095238 5:-1 6:0.428571 7:-1 8:-0.120157 9:-0.904762 10:-0.714286 11:-0.139647 12:-0.484127 13:-0.650794 14:0.0444953 15:-0.15555 16:0.0607659 17:0.0459343 18:-0.212054 19:0.204616 20:0.47619 21:0.0362758 22:-0.199431 23:1 24:0.243369 25:-0.0362547 26:-0.139785 27:-0.0921465 28:-0.161565 29:1 30:-0.4 31:-0.952381 32:-0.77551 33:0.904762 34:-0.571429 35:-0.897959 36:-0.761905 37:-0.952381 38:-0.489796 39:-0.571429 40:-0.415584 41:-0.68254 42:-0.404762 43:-0.285714 44:-0.658537 45:-1 46:-0.7 47:-0.365854 48:-0.904762 49:-0.714286 50:-0.929167 51:0.285714 
0.526315789 1:-0.41573 2:-0.891892 3:-0.095127 4:0.081081 5:-1 6:0.297297 7:-0.837838 8:-0.207064 9:-0.72973 10:-0.891892 11:0.134528 12:-0.472973 13:-0.460317 14:-0.0892022 15:-0.113999 16:0.0965536 17:0.0605076 18:-0.227891 19:-0.113299 20:0.783784 21:-0.0467133 22:-0.210651 23:1 24:0.119673 25:-0.0931601 26:-0.0557976 27:-0.0898657 28:-0.272201 29:0.945946 30:-0.47027 31:-0.945946 32:-0.745174 33:0.945946 34:-0.459459 35:-0.88417 36:-0.72973 37:-0.945946 38:-0.478765 39:-0.459459 40:-0.85258 41:-0.567567 42:-0.189189 43:-0.297297 44:-0.388889 45:-0.57551 46:-0.828571 47:-0.333333 48:-0.72973 49:-0.891892 50:-0.919048 51:0.513514 
0.526315789 1:-0.303371 2:-0.809524 3:-0.139728 4:0.285714 5:-1 6:0.190476 7:-0.952381 8:-0.18512 9:-0.761905 10:-0.904762 11:0.0529695 12:-0.690476 13:-0.619048 14:-0.165092 15:-0.0279102 16:0.203007 17:0.192582 18:-0.193941 19:0.139864 20:0.619048 21:-0.146147 22:-0.013675 23:1 24:0.53119 25:-0.0170894 26:-0.0881719 27:0.0813938 28:0.232993 29:0.952381 30:-0.4 31:-0.952381 32:-0.70068 33:0.952381 34:-0.47619 35:-0.897959 36:-0.761905 37:-0.952381 38:-0.693878 39:-0.47619 40:-0.74026 41:-0.619048 42:-0.22619 43:-0.380952 44:-0.609756 45:-0.628571 46:-0.7 47:-0.560976 48:-0.761905 49:-0.904762 50:-1 51:0.47619 
0.526315789 1:-0.662921 2:-1 3:-0.217019 4:0.153846 5:-0.692308 6:0.384615 7:-0.846154 8:-0.0742546 9:-0.923077 10:-0.846154 11:0.144339 12:-0.333333 13:-0.619048 14:-0.145043 15:-0.0267255 16:0.211379 17:0.152024 18:-0.00422267 19:0.18174 20:0.076923 21:-0.276609 22:0.0199678 23:0.923077 24:0.131061 25:0.0438939 26:0.103722 27:-0.0294312 28:-0.123626 29:0.692308 30:-0.138462 31:-0.384615 32:-0.758242 33:0.615385 34:-0.461538 35:-0.835165 36:-0.923077 37:-0.461538 38:-0.340659 39:-0.461538 40:-0.895105 41:-0.589743 42:-0.0384615 43:-0.230769 44:-0.6 45:-0.0714287 46:-0.75 47:-0.44 48:-0.923077 49:-0.846154 50:-1 51:0.461538 
0.526315789 1:-0.0561798 2:-0.924528 3:-0.523224 4:0.0566038 5:-1 6:0.358491 7:-0.924528 8:-0.00115859 9:-0.962264 10:-0.886792 11:-0.011236 12:-0.345912 13:-0.238095 14:-0.0389036 15:-0.0630116 16:0.183122 17:0.135472 18:0.0159577 19:0.275871 20:0.54717 21:-0.0377878 22:-0.00479169 23:0.849057 24:0.264831 25:-0.0568353 26:0.0839928 27:-0.146667 28:0.172507 29:1 30:-0.154717 31:-0.54717 32:-0.644205 33:0.773585 34:-0.433962 35:-0.959569 36:-0.924528 37:-0.811321 38:-0.3531 39:-0.433962 40:-0.588336 41:-0.597484 42:-0.0566038 43:-0.207547 44:-0.461538 45:-0.708683 46:-0.882353 47:-0.384615 48:-0.962264 49:-0.886792 50:-0.944444 51:0.54717 
0.526315789 1:-0.550562 2:-1 3:-0.197282 4:-0.483871 5:-0.741936 6:0.612903 7:-0.935484 8:0.0209639 9:-0.935484 10:-0.870968 11:0.0757521 12:-0.650538 13:-0.746032 14:-0.362631 15:-0.0582226 16:0.230751 17:0.158784 18:0.110774 19:0.415683 20:0.548387 21:-0.396842 22:-0.0625876 23:0.935484 24:0.0137616 25:0.395399 26:0.0894902 27:0.054545 28:0.0691244 29:1 30:-0.187097 31:-0.677419 32:-0.898618 33:0.225806 34:-0.548387 35:-0.930876 36:-0.870968 37:-0.741935 38:-0.654378 39:-0.548387 40:-0.824047 41:-0.655914 42:-0.354839 43:0.225806 44:-0.733333 45:-0.743842 46:-1 47:-0.533333 48:-0.935484 49:-0.870968 50:-1 51:0.548387 
0.526315789 1:-0.41573 2:-0.675676 3:-0.13675 4:-0.135135 5:-1 6:0.513514 7:-0.891892 8:0.536865 9:-0.945946 10:-0.891892 11:0.0980868 12:-0.297297 13:-0.555556 14:0.106769 15:-0.205004 16:-0.0159966 17:-0.0409078 18:-0.143724 19:0.117248 20:0.351351 21:0.143269 22:-0.0684583 23:1 24:0.0865182 25:-0.178075 26:-0.158326 27:-0.10184 28:-0.0482624 29:0.945946 30:-0.318919 31:-0.567568 32:-0.745174 33:0.567568 34:-0.351351 35:-0.942085 36:-0.783784 37:-0.72973 38:-0.305019 39:-0.351351 40:-0.557739 41:-0.351351 42:-0.594595 43:-0.135135 44:-0.333333 45:-0.363265 46:-0.657143 47:-0.111111 48:-0.945946 49:-0.891892 50:-1 51:0.351351 
0.526315789 1:-0.370787 2:-0.48718 3:0.210863 4:-0.128205 5:-1 6:0.128205 7:-1 8:0.0333157 9:-0.794872 10:-0.589744 11:0.334486 12:-0.833333 13:-0.492063 14:-0.175427 15:0.0129217 16:0.0969056 17:0.169639 18:-0.477156 19:0.114063 20:0.487179 21:0.0170762 22:-0.00352449 23:0.487179 24:0.84644 25:-0.170602 26:-0.27957 27:0.0515543 28:-0.415751 29:0.897436 30:-0.784615 31:-1 32:-0.516483 33:0.897436 34:-0.179487 35:-0.505495 36:-0.794872 37:-0.948718 38:-0.835165 39:-0.179487 40:-1 41:-0.316239 42:-0.551282 43:-0.538462 44:-0.789474 45:-0.196911 46:-0.837838 47:-0.789474 48:-0.794872 49:-0.538462 50:-1 51:0.487179 
0.526315789 1:-0.52809 2:-0.75 3:-0.118829 4:0.1875 5:-0.75 6:0.5 7:-1 8:-0.493709 9:-0.5625 10:-0.875 11:0.115169 12:-0.796875 13:-0.587302 14:-0.231176 15:0.0618203 16:0.185653 17:0.232134 18:-0.173305 19:0.233829 20:0.6875 21:-0.151228 22:0.157543 23:0.8125 24:0.618345 25:0.0563775 26:-0.103629 27:0.10919 28:-0.352679 29:0.9375 30:-0.3875 31:-0.9375 32:-0.508929 33:0.9375 34:-0.3125 35:-0.866071 36:-0.625 37:-0.9375 38:-0.799107 39:-0.3125 40:-0.829545 41:-0.583333 42:-0.296875 43:-0.375 44:-0.548387 45:-0.504762 46:-0.8 47:-0.419355 48:-0.625 49:-0.875 50:-1 51:0.4375 
0.526315789 1:-0.595506 2:-0.862069 3:-0.194822 4:-0.172414 5:-0.448276 6:0.37931 7:-1 8:-0.0665563 9:-0.448276 10:-0.862069 11:0.128245 12:-0.775862 13:-0.650794 14:-0.237317 15:-0.0875653 16:0.118859 17:0.0838215 18:-0.14425 19:0.279909 20:0.793103 21:-0.208691 22:-0.158036 23:1 24:0.0243371 25:0.242839 26:-0.0760844 27:-0.0478168 28:0.142857 29:0.931034 30:-0.517241 31:-0.931034 32:-0.674877 33:0.517241 34:-0.241379 35:-0.852217 36:-0.586207 37:-0.931034 38:-0.778325 39:-0.241379 40:-0.717868 41:-0.448276 42:-0.482758 43:0.0344828 44:-0.5 45:-1 46:-1 47:-0.357143 48:-0.448276 49:-0.862069 50:-1 51:0.793103 
0.526315789 1:-0.213483 2:-0.826087 3:-0.559245 4:0.0869566 5:-1 6:0.608696 7:-0.956522 8:-0.171766 9:-0.913043 10:-0.869565 11:0.0180752 12:-0.481884 13:-0.174603 14:-0.126831 15:-0.128389 16:0.131117 17:0.0445905 18:-0.106796 19:0.299634 20:0.217391 21:-0.19653 22:-0.188154 23:0.869565 24:-0.0601314 25:-0.0276352 26:0.246003 27:-0.233982 28:0.0357143 29:0.913043 30:-0.269565 31:-0.826087 32:-0.726708 33:0.695652 34:-0.434783 35:-0.860248 36:-0.913043 37:-0.956522 38:-0.487578 39:-0.434783 40:-0.762846 41:-0.710145 42:0.0326088 43:-0.130435 44:-0.688889 45:-1 46:-0.590909 47:-0.511111 48:-0.913043 49:-0.869565 50:-0.871212 51:0.391304 
0.526315789 1:-0.191011 2:-1 3:-0.421424 4:-0.148936 5:-1 6:0.574468 7:-1 8:-0.00787473 9:-0.957447 10:-0.87234 11:-0.0686111 12:-0.446809 13:-0.746032 14:-0.200824 15:-0.293272 16:-0.0190763 17:-0.090335 18:-0.0474181 19:0.433441 20:0.489362 21:-0.111917 22:-0.242501 23:0.957447 24:-0.0404338 25:0.284223 26:-0.194372 27:-0.134384 28:-0.118541 29:0.87234 30:-0.165958 31:-0.787234 32:-1 33:0.744681 34:-0.659574 35:-0.863222 36:-0.957447 37:-0.787234 38:-0.452888 39:-0.659574 40:-0.477756 41:-0.602837 42:-0.62766 43:0.106383 44:-0.565217 45:-0.834921 46:-1 47:-0.173913 48:-0.957447 49:-0.87234 50:-1 51:0.404255 
0.526315789 1:-0.505618 2:-0.757576 3:-0.379734 4:0.090909 5:-0.272727 6:0.878788 7:-0.757576 8:-0.288731 9:-0.939394 10:-0.69697 11:0.029622 12:-0.737374 13:-0.333333 14:-0.167535 15:-0.0536491 16:0.052072 17:0.0566816 18:-0.135779 19:0.317962 20:0.030303 21:-0.280039 22:-0.0822688 23:0.393939 24:0.0114385 25:-0.0320769 26:0.0926687 27:-0.12704 28:0.00432908 29:1 30:-0.236364 31:-0.757576 32:-0.714286 33:0.515152 34:-0.212121 35:-0.675325 36:-0.939394 37:-0.818182 38:-0.74026 39:-0.212121 40:-0.834711 41:-0.757576 42:-0.469697 43:-0.393939 44:-0.6875 45:-0.520737 46:-0.806452 47:-0.6875 48:-0.939394 49:-0.69697 50:-0.908602 51:0.151515 
0.526315789 1:-0.662921 2:-0.692308 3:-0.120117 4:-0.384615 5:-1 6:0.461538 7:-0.846154 8:-0.482234 9:-0.615385 10:-0.461538 11:0.0924805 12:-0.75 13:-0.619048 14:-0.0723383 15:-0.179066 16:-0.0535549 17:-0.032752 18:-0.465824 19:-0.0298085 21:-0.073231 22:-0.219567 23:0.769231 24:0.307339 25:-0.140197 26:-0.167246 27:-0.110233 28:-0.681319 29:0.615385 30:-0.784615 31:-0.307692 32:-0.637363 33:0.615385 34:-0.384615 35:-0.587912 36:-0.923077 37:-0.846154 38:-0.67033 39:-0.384615 40:-0.895105 41:-0.692308 42:-0.423077 43:-0.538462 44:-0.84 45:-1 46:-1 47:-0.76 48:-0.923077 49:-0.461538 50:-1 51:0.692308 
0.526315789 1:-0.730337 2:-1 3:-0.140763 4:0.130435 5:-0.652174 6:0.478261 7:-0.913043 8:0.158237 9:-0.913043 10:-0.652174 11:0.106009 12:-0.528986 13:-0.619048 14:0.173705 15:0.0083776 16:0.0719017 17:0.155621 18:-0.0348574 19:0.270376 20:-0.130435 21:0.0271362 22:0.127102 23:0.652174 24:0.259702 25:-0.245334 26:-0.0151471 27:-0.0746 28:-0.00931666 29:0.913043 30:-0.269565 31:-0.826087 32:-0.590062 33:0.913043 34:-0.217391 35:-0.254658 36:-0.913043 37:-0.826087 38:-0.720497 39:-0.217391 40:-0.762846 41:-0.536232 42:-0.239131 43:-0.478261 44:-0.545455 45:-1 46:-0.714286 47:-0.727273 48:-0.913043 49:-0.652174 50:-1 51:0.217391 
0.526315789 1:-0.52809 2:-0.75 3:-0.159681 4:0.1875 5:-0.75 6:0.5 7:-1 8:-0.493709 9:-0.5625 10:-0.875 11:0.0730337 12:-0.59375 13:-0.555556 14:-0.140363 15:0.05379 16:0.165166 17:0.219993 18:-0.189351 19:0.172035 20:0.6875 21:-0.0809956 22:0.0929037 23:0.8125 24:0.512123 25:-0.0355849 26:-0.0979837 27:0.10919 28:-0.287946 29:0.9375 30:-0.3875 31:-0.9375 32:-0.508929 33:0.9375 34:-0.3125 35:-0.866071 36:-0.5625 37:-0.9375 38:-0.598214 39:-0.3125 40:-0.744318 41:-0.583333 42:-0.375 43:-0.375 44:-0.483871 45:-0.504762 46:-1 47:-0.483871 48:-0.5625 49:-0.875 50:-1 51:0.4375 
0.526315789 1:-0.775281 2:-0.809524 3:-0.26029 4:0.52381 5:-0.619048 6:0.333333 7:-0.619048 8:-0.366593 9:-0.809524 10:-0.904762 11:0.0529695 12:-0.277778 13:-0.68254 14:-0.440512 15:-0.154495 16:0.105395 17:-0.0127246 18:0.139953 19:0.22176 20:0.428571 21:-0.502421 22:-0.0508796 23:1 24:-0.165543 25:0.381054 26:0.193548 27:0.0385191 28:0.085034 29:0.809524 30:-0.0666667 31:-1 32:-0.85034 33:0.809524 34:-0.714286 35:-0.693878 36:-0.904762 37:-0.52381 38:-0.285714 39:-0.714286 40:-1 41:-0.873016 42:-0.285714 43:0.238095 44:-0.5 45:-0.609023 46:-0.68421 48:-0.809524 49:-0.904762 50:-1 51:0.428571 
0.526315789 1:-0.348315 2:-1 3:-0.505614 4:0.35 5:-0.8 6:-0.2 7:-0.95 8:-0.338242 9:-0.8 10:-0.95 11:-0.0449438 12:-0.35 13:-0.365079 14:-0.00581908 15:-0.134727 16:0.0909511 17:0.0432721 18:-0.0585941 19:0.369398 20:0.4 21:-0.0285795 22:-0.158559 23:0.75 24:0.0593383 25:-0.119974 26:0.157742 27:-0.28088 28:0.139286 29:0.9 30:-0.23 31:-0.65 32:-0.685714 33:0.8 34:-0.35 35:-0.946429 36:-0.9 37:-0.65 38:-0.357143 39:-0.35 40:-0.590909 41:-0.666667 42:-0.125 43:-0.25 44:-0.538462 45:-0.804511 46:-0.842105 47:-0.487179 48:-0.9 49:-0.95 50:-1 51:0.55 
0.526315789 1:-0.348315 2:-0.7 3:-0.0976046 4:0.15 5:-0.8 6:0.45 7:-0.9 8:-0.0178612 9:-0.95 10:-0.75 11:0.0898876 12:-0.404167 13:-0.492063 14:-0.139129 15:-0.204729 16:0.0373961 17:-0.00860723 18:-0.167655 19:0.124986 20:0.55 21:-0.295281 22:-0.150971 23:1 24:-0.0712155 25:0.145311 26:0.0358066 27:-0.0525725 28:0.346429 29:0.95 30:-0.58 31:0.55 32:-0.764286 33:0.65 34:-0.55 35:-0.946429 36:-0.85 37:-0.9 38:-0.303571 39:-0.55 40:-0.931818 41:-0.733333 42:-0.5625 44:-0.692308 45:-0.804511 46:-0.68421 47:-0.487179 48:-0.95 49:-0.75 50:-1 51:0.35 
0.526315789 1:-0.955056 2:-1 3:-0.243685 4:-1 5:-1 6:0.538462 7:-1 8:-0.232827 9:-0.538462 10:-0.846154 11:-0.114952 12:0.166667 13:-0.936508 14:-0.620336 15:0.234673 16:0.491583 17:0.502259 18:0.527399 19:0.649792 20:0.692308 21:-0.570917 22:0.470068 23:0.692308 24:0.546527 25:0.567539 26:0.253102 27:0.649967 28:0.274725 29:1 30:0.723077 31:0.692308 32:-1 33:-1 34:-1 35:-0.835165 36:-0.538462 37:0.076923 38:0.153846 39:-1 40:-0.79021 41:-1 42:-0.615385 43:0.384615 44:-0.5 45:-1 46:0.0909093 47:-0.333333 48:-0.538462 49:-0.846154 50:-1 51:-0.076923 
0.526315789 1:-0.258427 2:-1 3:-0.28096 4:-0.227273 5:-0.818182 6:0.363636 7:-1 8:-0.336303 9:-0.954545 10:-0.772727 11:0.0194075 12:-0.409091 13:-0.460317 14:-0.273978 15:-0.16139 16:0.17057 17:0.0808733 18:0.0298123 19:0.179823 20:0.681818 21:-0.398411 22:-0.118804 23:0.954545 24:-0.20115 25:0.242663 26:0.250733 27:-0.01444 28:0.176948 29:1 30:-0.363636 32:-0.642857 33:0.090909 34:-0.545455 35:-0.951299 36:-0.909091 37:-0.863636 38:-0.415584 39:-0.545455 40:-0.876033 41:-0.818182 42:-0.204545 43:0.136364 44:-0.767442 45:-0.646259 46:-0.857143 47:-0.534884 48:-0.954545 49:-0.590909 50:-0.865079 51:0.681818 
0.526315789 1:-0.820225 2:-0.789474 3:-0.305167 4:0.157895 5:-1 6:0.473684 7:-0.894737 8:-0.443032 9:-0.894737 10:-0.789474 11:-0.153164 12:-0.0877193 13:-0.84127 14:-0.26635 15:-0.208949 16:0.0924819 17:-0.0125347 18:-0.0723901 19:0.157667 20:0.578947 21:-0.240695 22:-0.117231 23:1 24:0.0545634 25:0.292462 26:-0.0149404 27:-0.0389203 28:-0.12782 29:0.0526316 30:-0.410526 31:0.368421 32:-0.669173 33:-0.473684 34:-0.684211 35:-0.887218 36:-0.368421 37:-0.473684 38:-0.0977444 39:-0.684211 40:-0.569378 41:-0.859649 42:-0.0789473 43:0.0526316 44:-0.777778 45:-1 46:-1 47:-0.555556 48:-0.894737 49:-0.789474 50:-1 51:0.0526316 
0.526315789 1:-0.797753 2:-0.8 3:-0.322575 4:0.1 5:-0.6 6:0.5 7:-0.5 8:-0.322431 9:-0.9 10:-0.6 11:-0.0786517 12:-0.35 13:-0.587302 14:0.174749 15:-0.38815 16:-0.357802 17:-0.350442 18:-0.433239 19:-0.00573571 20:0.2 21:0.104589 22:-0.580685 23:1 24:-0.350852 25:-0.252183 26:-0.255484 27:-0.45488 28:0.139286 29:0.9 30:-0.72 31:-0.7 32:-0.842857 33:0.4 34:-0.3 35:-0.892857 36:-0.2 37:-0.7 38:-0.357143 39:-0.3 40:-0.590909 41:-0.733333 42:-0.75 43:-0.5 44:-0.578947 45:-1 46:-1 47:-0.473684 48:-0.9 49:-0.6 50:-1 51:0.6 
0.526315789 1:-0.88764 2:-0.75 3:-0.0956617 5:-0.5 6:0.5 7:-0.875 8:-0.288145 9:-0.5 10:-0.75 11:0.325843 12:-0.322917 13:-0.714286 14:0.0439076 15:-0.0769092 16:0.0203139 17:0.0577225 18:-0.19829 19:0.0943166 20:-0.125 21:0.10994 22:-0.00159683 23:0.875 24:0.256021 25:-0.171906 26:-0.21371 27:-0.18066 28:0.0357143 29:1 30:-0.475 31:0.375 32:-0.607143 33:1 35:-0.732143 36:-0.625 37:-0.875 38:-0.330357 40:-0.829545 41:-0.166667 42:-0.53125 43:-0.375 44:-0.466667 45:-0.469388 46:-0.571429 47:-0.0666666 48:-0.5 49:-0.75 50:-1 51:0.25 
0.526315789 1:-0.011236 2:-0.781818 3:-0.363125 4:-0.090909 5:-1 6:0.527273 7:-0.927273 8:-0.197083 9:-0.818182 10:-0.890909 11:-0.0357508 12:-0.448485 13:-0.047619 14:0.343391 15:-0.283873 16:-0.192311 17:-0.173893 18:-0.390238 19:-0.0401278 20:0.745455 21:0.402391 22:-0.359019 23:0.927273 24:-0.0635288 25:-0.359666 26:-0.303108 27:-0.461376 28:-0.246753 29:0.890909 30:-0.694545 31:-0.927273 32:-0.6 33:0.381818 34:-0.309091 35:-0.805195 36:-0.890909 37:-0.963636 38:-0.415584 39:-0.309091 40:-0.404959 41:-0.466667 42:-0.409091 43:-0.454545 44:-0.740741 45:-0.859838 46:-1 47:-0.481481 48:-0.890909 49:-0.781818 50:-0.946541 51:0.636364 
0.526315789 1:-0.235955 2:-0.822222 3:-0.127119 4:-0.244444 5:-0.822222 6:0.777778 7:-0.955556 8:0.0375761 9:-0.822222 10:-0.955556 11:0.198502 12:-0.325926 13:-0.428571 14:-0.125414 15:-0.194637 16:-0.0292398 17:-0.0360077 18:-0.18008 19:0.245921 20:0.644444 21:-0.0168099 22:-0.135389 23:0.955556 24:0.104063 25:0.114608 26:-0.261505 27:-0.138878 28:-0.0333332 29:1 30:-0.44 31:0.111111 32:-0.720635 33:0.422222 34:-0.244444 35:-0.952381 36:-0.777778 37:-0.911111 38:-0.333333 39:-0.244444 40:-0.69697 41:-0.288889 42:-0.722222 43:-0.0666666 44:-0.5 45:-0.481728 46:-1 47:-0.090909 48:-0.822222 49:-0.955556 50:-1 51:0.644444 
0.526315789 1:-0.483146 2:-1 3:-0.336347 4:0.235294 5:-0.529412 6:0.588235 7:-1 8:-0.542335 9:-0.882353 10:-0.941176 11:0.107733 12:0.27451 13:-0.587302 14:-0.404711 15:-0.149035 16:0.23839 17:0.0980638 18:0.0542316 19:0.391449 20:0.411765 21:-0.5588 22:-0.023295 23:0.941176 24:0.00824895 25:0.301908 26:0.282733 27:-0.0488315 28:0.0357143 29:1 30:0.0705881 31:-1 32:-1 33:1 34:-0.647059 35:-0.936975 36:-0.882353 37:-0.294118 38:-0.243697 39:-0.647059 40:-1 41:-0.764706 42:0.0294117 43:-0.0588236 44:-0.636364 45:-0.767857 46:-0.625 47:-0.757576 48:-0.882353 49:-0.941176 50:-1 51:0.411765 
0.526315789 1:-0.662921 2:-0.846154 3:-0.448019 4:0.153846 5:-1 6:0.615385 7:-0.769231 8:-0.359051 9:-0.692308 10:-0.846154 11:-0.218669 12:-0.166667 13:-0.714286 14:-0.0169959 15:-0.21042 16:0.0061084 17:-0.0786726 18:-0.0524827 19:0.227332 21:-0.129174 22:-0.138713 23:0.846154 24:-0.0786372 25:0.00228197 26:-0.0178659 27:-0.0811005 28:0.354396 29:1 30:-0.0307693 31:-0.307692 32:-0.879121 33:1 34:-0.846154 35:-0.835165 36:-0.615385 37:-0.923077 38:-0.175824 39:-0.846154 40:-0.475524 41:-0.897436 42:-0.230769 43:-0.153846 44:-0.12 45:-1 46:-0.75 47:-0.12 48:-0.692308 49:-0.846154 50:-1 51:-0.153846 
0.526315789 1:-0.168539 2:-0.833333 3:-0.0713725 4:-0.166667 5:-1 6:0.458333 7:-1 8:0.215757 9:-0.958333 10:-0.458333 11:0.157303 12:-0.59375 13:-0.365079 14:0.0844648 15:-0.210377 16:-0.0583641 17:-0.0512478 18:-0.310713 19:0.14809 20:0.5 21:0.071226 22:-0.196921 23:0.916667 24:0.0382537 25:-0.156038 26:-0.185484 27:-0.199418 28:-0.0505953 29:1 30:-0.533333 31:-0.916667 32:-0.738095 33:1 34:-0.291667 35:-0.776786 36:-0.958333 37:-0.916667 38:-0.598214 39:-0.291667 40:-0.715909 41:-0.388889 42:-0.635417 43:-0.291667 44:-0.702128 45:-0.515528 46:-0.73913 47:-0.404255 48:-0.958333 49:-0.458333 50:-1 51:0.375 
0.526315789 1:-0.258427 2:-1 3:-0.192343 4:-0.409091 5:-1 6:0.5 7:-1 8:-0.0563583 9:-0.954545 10:-0.863636 11:0.111338 12:-0.409091 13:-0.52381 14:-0.129062 15:-0.182133 16:0.0671116 17:0.0207889 18:-0.15607 19:0.152759 20:0.636364 21:-0.149542 22:-0.222534 23:1 24:-0.0146995 25:0.122276 26:-0.118768 27:-0.112207 28:0.12987 29:0.863636 30:-0.427273 31:-0.772727 32:-0.785714 33:0.727273 34:-0.5 35:-0.951299 36:-0.590909 37:-0.909091 38:-0.415584 39:-0.5 40:-0.752066 41:-0.515151 42:-0.375 43:-0.090909 44:-0.44186 45:-0.823129 46:-0.857143 47:-0.209302 48:-0.954545 49:-0.863636 50:-1 51:0.818182 
0.526315789 1:0.775281 2:-0.911111 3:-0.833339 4:0.111111 5:-0.822222 6:0.311111 7:-0.888889 8:-0.154071 9:-0.844444 10:-0.888889 11:-0.131086 12:-0.494445 13:0.206349 14:0.0432415 15:-0.210784 16:0.0165179 17:-0.0169511 18:-0.110657 19:0.25454 20:0.666667 21:-0.0776715 22:-0.244308 23:0.977778 24:-0.0200307 25:-0.0522463 26:0.0335485 27:-0.192074 28:0.081746 29:1 30:-0.315556 31:-0.911111 32:-0.860317 33:0.577778 34:-0.555556 35:-0.880952 36:-0.977778 37:-0.933333 38:-0.452381 39:-0.555556 40:-0.545454 41:-0.792593 42:-0.361111 43:-0.222222 44:-0.52809 45:-0.831169 46:-0.795455 47:-0.348315 48:-0.977778 49:-0.888889 50:-1 51:0.711111 
0.526315789 1:0.370787 2:-0.722222 3:-0.400136 4:0.305556 5:-0.777778 6:0.222222 7:-0.972222 8:-0.113041 9:-0.916667 10:-0.972222 11:-0.011236 12:-0.157407 13:-0.111111 14:0.0934774 15:-0.226192 16:-0.03419 17:-0.0444042 18:-0.155179 19:0.218597 20:0.444444 21:0.0647396 22:-0.0969171 23:1 24:0.0887766 25:-0.085473 26:-0.179211 27:-0.169446 28:-0.0218254 29:0.944444 30:-0.416667 31:-0.361111 32:-0.650794 33:0.944444 34:-0.333333 35:-0.940476 36:-0.972222 37:-0.861111 38:-0.166667 39:-0.333333 40:-0.469697 41:-0.481482 42:-0.513889 43:-0.222222 44:-0.774648 45:-0.787755 46:-0.742857 47:-0.549296 48:-0.916667 49:-0.972222 50:-0.797619 51:0.555556 
0.526315789 1:-0.483146 2:-1 3:-0.155853 4:-0.529412 5:-0.529412 6:0.705882 7:-0.882353 8:-0.194111 9:-0.941176 10:-0.882353 11:0.107733 12:-0.490196 13:-0.68254 14:-0.302644 15:-0.144604 16:0.0852208 17:0.0286684 18:-0.0448176 19:0.391283 20:0.588235 21:-0.454783 22:-0.112898 23:0.941176 24:-0.0914728 25:0.377514 26:0.0303607 27:0.0381789 28:-0.0861344 29:1 30:-0.341177 31:0.588235 32:-0.907563 33:0.117647 34:-0.529412 35:-0.936975 36:-0.705882 37:-0.764706 38:-0.495798 39:-0.529412 40:-0.919786 41:-0.686274 42:-0.558824 43:0.117647 44:-0.818182 45:-0.767857 46:-1 47:-0.575758 48:-0.941176 49:-0.882353 50:-1 51:0.529412 
0.526315789 1:-0.955056 2:-1 3:-0.202184 4:-0.076923 5:-1 6:0.230769 7:-0.846154 8:-0.621858 9:-0.692308 10:-0.538462 11:-0.011236 12:-0.833333 13:-0.84127 14:-0.379434 15:-0.350832 16:-0.137723 17:-0.15958 18:-0.126248 19:0.449532 20:0.538462 21:-0.417121 22:-0.45694 23:1 24:-0.435124 25:0.240635 26:0.190571 27:-0.176744 28:0.274725 29:0.846154 30:-0.569231 31:-1 32:-1 33:-1 34:-0.384615 35:-0.67033 36:-0.846154 37:0.230769 38:-1 39:-0.384615 40:-1 41:-1 42:-0.615385 43:0.076923 44:-1 45:-1 46:-1 47:-0.833333 48:-0.846154 49:-0.538462 50:-1 51:0.538462 
0.526315789 1:-0.662921 2:-0.692308 3:-0.0756145 4:0.076923 5:-0.692308 6:0.461538 7:-0.923077 8:-0.36217 9:-0.923077 10:-0.846154 11:0.196197 12:1.08333e-07 13:-0.587302 14:-0.122255 15:-0.114994 16:0.043398 17:0.0652848 18:-0.0599789 19:0.272071 20:0.307692 21:-0.117387 22:-0.0453205 23:1 24:0.00131107 25:-0.0406616 26:0.055087 27:-0.0492194 28:0.274725 29:0.923077 30:-0.353846 31:0.769231 32:-0.758242 33:0.923077 34:-0.153846 35:-0.917582 36:-0.384615 37:0.076923 38:0.236264 39:-0.153846 40:-0.895105 41:-0.487179 42:-0.615385 43:-0.076923 44:-0.76 45:-1 46:-0.5 47:-0.76 48:-0.923077 49:-0.846154 50:-0.881944 51:0.307692 
0.526315789 1:-0.775281 2:-0.619048 3:-0.261707 4:0.333333 5:-0.619048 6:0.428571 7:-0.904762 8:-0.238566 9:-0.904762 10:-0.619048 11:-0.011236 12:-0.380952 13:-0.650794 14:-0.290039 15:-0.0270663 16:0.193774 17:0.159191 18:0.0647249 19:0.204882 20:-0.142857 21:-0.427598 22:0.102222 23:0.52381 24:-0.0414092 25:0.130875 26:0.24086 27:0.133116 28:0.085034 29:0.904762 30:-0.2 31:0.047619 32:-0.551021 33:-0.428571 34:-0.428571 35:-0.897959 36:-0.333333 37:-0.809524 38:-0.387755 39:-0.428571 40:-0.87013 41:-0.873016 42:-0.047619 43:-0.047619 44:-0.3 45:-1 46:-1 47:-0.3 48:-0.904762 49:-0.619048 50:-0.850877 51:-0.047619 
0.526315789 1:-0.370787 2:-0.589744 3:-0.118098 4:-0.076923 5:-1 6:0.487179 7:-0.897436 8:-0.372254 9:-0.846154 10:-0.948718 11:0.0924805 12:-0.388889 13:-0.460317 14:-0.391009 15:-0.0695534 16:0.0609182 17:0.0877592 18:-0.393307 19:0.0637852 20:0.128205 21:-0.333549 22:-0.0646332 23:0.948718 24:0.461555 25:0.152529 26:-0.145244 27:0.0929631 28:0.115385 29:1 30:-0.784615 31:-1 32:-0.435897 33:0.384615 34:-0.384615 35:-0.945055 36:-0.846154 37:-0.74359 38:-0.56044 39:-0.384615 40:-1 41:-0.794872 42:-0.423077 43:-0.384615 44:-0.789474 45:-0.799228 46:-0.837838 47:-0.736842 48:-0.846154 49:-0.948718 50:-1 51:0.589744 
0.526315789 1:-0.88764 2:-1 3:-0.0981401 4:0.125 5:-1 6:-0.125 7:-1 8:-0.541282 9:-0.875 10:-0.25 11:0.241573 12:-0.729167 13:-0.809524 14:-0.0354435 15:-0.233084 16:-0.114151 17:-0.087966 18:-0.491667 19:0.116473 21:-0.0442071 22:-0.227836 23:0.375 24:0.352392 25:-0.0940081 26:-0.320968 27:-0.201205 28:0.165179 29:1 30:-0.65 31:-1 32:-0.803571 33:0.875 34:-0.5 35:-0.866071 36:-0.625 37:-0.75 38:-0.732143 39:-0.5 40:-1 41:-0.5 42:-0.375 43:-0.625 44:-0.733333 45:-1 46:-1 47:-0.6 48:-0.875 49:-0.25 50:-1 51:0.5 
0.526315789 1:-0.617978 2:-1 3:-0.155871 4:-0.428571 5:-0.714286 6:0.571429 7:-0.928571 8:0.052335 9:-0.928571 10:-0.857143 11:0.133226 12:-0.380952 13:-0.68254 14:-0.274253 15:-0.0865613 16:0.134085 17:0.0947792 18:0.0503308 19:0.338872 20:0.285714 21:-0.32162 22:-0.090627 23:0.714286 24:-0.0650392 25:0.310472 26:0.0129034 27:-0.00163324 28:-0.0382653 29:1 30:-0.2 31:0.714286 32:-0.887755 33:0.142857 34:-0.571429 35:-0.923469 36:-0.642857 37:-0.714286 38:-0.387755 39:-0.571429 40:-0.902597 41:-0.619048 42:-0.464286 43:0.142857 44:-0.555556 45:-0.714286 46:-1 47:-0.259259 48:-0.928571 49:-0.857143 50:-1 51:0.285714 
0.526315789 1:-0.550562 2:-0.870968 3:-0.155853 4:-0.419355 5:-0.483871 6:0.870968 7:-0.935484 8:-0.194111 9:-0.935484 10:-0.870968 11:0.119246 12:-0.44086 13:-0.68254 14:-0.34716 15:-0.0748011 16:0.164031 17:0.115379 18:-0.00876717 19:0.401746 20:0.612903 21:-0.468869 22:-0.0332141 23:0.935484 24:-0.014818 25:0.389257 26:0.0807493 27:0.0854332 28:-0.0645161 29:1 30:-0.367742 31:0.741935 32:-0.797235 33:0.225806 34:-0.419355 35:-0.930876 36:-0.677419 37:-0.741935 38:-0.447005 39:-0.419355 40:-0.912023 41:-0.655914 42:-0.516129 43:0.16129 44:-0.8 45:-0.743842 46:-1 47:-0.6 48:-0.935484 49:-0.870968 50:-1 51:0.548387 
0.526315789 1:-0.685393 2:-0.84 3:-0.219253 4:-0.12 5:-0.04 6:0.68 7:-1 8:-0.0982694 9:-0.92 10:-0.84 11:0.0426966 12:-0.393333 13:-0.714286 14:-0.385858 15:-0.0167875 16:0.238042 17:0.200379 18:0.150134 19:0.412465 20:0.36 21:-0.437911 22:0.0720082 23:0.84 24:0.00285727 25:0.372382 26:0.116645 27:0.126501 28:-0.0885714 29:0.92 30:-0.104 31:-0.36 32:-0.748571 33:-0.12 34:-0.36 35:-0.914286 36:-0.68 37:-0.6 38:-0.4 39:-0.36 40:-0.781818 41:-0.68 42:-0.4 43:0.12 44:-0.666667 45:-1 46:-0.478261 47:-0.583333 48:-0.92 49:-0.84 50:-1 51:0.12 
0.526315789 1:-0.932584 2:-0.142857 3:-0.180302 4:-0.571429 5:-1 6:0.857143 7:-1 8:-0.27872 9:-0.428571 10:-0.857143 11:0.0850722 12:-1 13:-0.873016 14:-0.76497 15:0.360284 16:0.627094 17:0.606804 18:0.428805 19:0.551734 20:0.142857 21:-0.811902 22:0.84685 23:0.571429 24:0.722665 25:0.527781 26:0.316129 27:0.748673 28:0.479592 29:1 30:0.2 31:-1 32:-0.326531 33:0.714286 34:-0.428571 35:-0.846939 36:-0.428571 37:0.714286 38:-1 39:-0.428571 40:-1 41:-0.809524 42:0.0714285 43:0.285714 44:-0.846154 45:-1 46:0.5 47:-0.846154 48:-0.428571 49:-0.857143 50:-0.763889 51:0.142857 
0.526315789 1:-0.617978 2:-1 3:-0.279492 4:-0.357143 5:-0.428571 6:0.428571 7:-0.857143 8:-0.490141 9:-0.857143 10:-0.642857 11:0.0850722 12:-0.767857 13:-0.555556 14:-0.311535 15:-0.110612 16:0.210592 17:0.0981633 18:0.0161983 19:0.133733 20:0.785714 21:-0.404665 22:-0.109096 23:1 24:-0.0470888 25:0.110473 26:0.277419 27:-0.0480808 28:-0.334184 29:0.642857 30:1.4e-07 31:-1 32:-0.887755 33:0.571429 34:-0.642857 35:-0.617347 36:-0.857143 37:-0.928571 38:-0.770408 39:-0.642857 40:-1 41:-0.809524 42:-0.107143 43:-0.142857 44:-0.481481 45:-0.428571 46:-0.769231 47:-0.62963 48:-0.857143 49:-0.642857 50:-0.891026 51:0.785714 
0.526315789 1:-0.730337 2:-1 3:-0.080455 4:-0.0434782 5:-1 6:-0.217391 7:-0.826087 8:-0.182782 9:-0.73913 10:-0.652174 11:0.164631 12:-0.905797 13:-0.714286 14:-0.0949378 15:0.0580761 16:0.126902 17:0.18652 18:-0.30622 19:0.142252 20:0.391304 21:-0.178023 22:0.117327 23:1 24:0.723802 25:-0.0526603 26:-0.156522 27:0.050917 28:-0.279503 29:1 30:-0.634783 31:-1 32:-0.453416 33:0.913043 34:-0.391304 35:-0.254658 36:-0.73913 37:-0.913043 38:-0.906832 39:-0.391304 40:-1 41:-0.652174 42:-0.130435 43:-0.652174 44:-0.909091 45:-0.646259 46:-0.714286 47:-0.818182 48:-0.73913 49:-0.304348 50:-1 51:0.391304 
0.526315789 1:-0.483146 2:-0.882353 3:-0.136378 4:-0.529412 5:-0.529412 6:0.705882 7:-0.882353 8:-0.240471 9:-0.941176 10:-0.882353 11:0.107733 12:-0.426471 13:-0.650794 14:-0.36737 15:-0.102124 16:0.141166 17:0.0852438 18:0.0165624 19:0.37353 20:0.529412 21:-0.555938 22:-0.0143677 23:0.941176 24:-0.0764393 25:0.414935 26:0.12334 27:0.126871 28:-0.0252101 29:1 30:-0.341177 31:-1 32:-0.815126 33:0.117647 34:-0.529412 35:-0.936975 36:-0.705882 37:-0.529412 38:-0.432773 39:-0.529412 40:-1 41:-0.764706 42:-0.485294 43:0.176471 44:-0.878788 45:-0.767857 46:-0.8125 47:-0.636364 48:-0.941176 49:-0.882353 50:-0.911458 51:0.529412 
0.526315789 1:-0.393258 2:-0.894737 3:-0.138819 5:-1 6:0.842105 7:-1 8:-0.0699018 9:-0.894737 10:-0.157895 11:0.0952099 12:-0.600877 13:-0.206349 14:0.392959 15:-0.249756 16:-0.261554 17:-0.130981 18:-0.509702 19:0.183612 20:0.526316 21:0.362387 22:-0.390878 23:0.947368 24:-0.0734458 25:-0.574661 26:-0.119524 27:-0.479702 28:-0.182331 29:0.842105 30:-0.926316 31:-0.947368 32:-0.586466 33:0.631579 34:0.210526 35:-0.492481 36:-0.894737 37:-0.947368 38:-0.661654 39:0.210526 40:-0.641148 41:-0.438597 42:-0.671053 43:-0.684211 44:-0.945946 45:-0.793651 46:-1 47:-0.783784 48:-0.894737 49:0.0526316 50:-1 51:0.421053 
0.526315789 1:-0.41573 2:-0.783784 3:-0.239514 4:-0.027027 5:-1 6:0.567568 7:-1 8:-0.15959 9:-0.783784 10:-0.891892 11:0.0616459 12:-0.531532 13:-0.460317 14:-0.28136 15:-0.172913 16:0.098051 17:0.0282391 18:-0.0583275 19:0.2156 20:0.351351 21:-0.373562 22:-0.102487 23:0.891892 24:-0.207963 25:0.199248 26:0.227376 27:-0.0535574 28:0.175676 29:0.621622 30:-0.545946 31:0.081081 32:-0.490347 33:0.513514 34:-0.405405 35:-0.76834 36:-0.891892 37:-0.945946 38:-0.710425 39:-0.405405 40:-0.92629 41:-0.783784 42:-0.189189 43:0.135135 44:-0.833333 45:-0.57551 46:-1 47:-0.388889 48:-0.891892 49:-0.621622 50:-1 51:0.351351 
0.526315789 1:-0.640449 2:-0.703704 3:-0.109468 4:-0.333333 5:-0.407407 6:0.407407 7:-0.925926 8:0.160352 9:-0.481481 10:-0.851852 11:0.288389 12:-0.518519 13:-0.52381 14:-0.188529 15:-0.0234562 16:0.155569 17:0.157436 18:-0.0826103 19:0.132021 20:0.851852 21:-0.0582491 22:-0.0173925 23:0.925926 24:0.201495 25:0.0426733 26:-0.115651 27:-0.0981202 28:0.304233 29:1 30:-0.377778 31:0.333333 32:-0.650794 33:0.62963 34:0.037037 35:-0.84127 36:-0.481481 37:-0.925926 38:-0.52381 39:0.037037 40:-0.79798 41:-0.209877 42:-0.351852 43:-0.185185 44:-0.384615 45:-1 46:-0.76 47:-0.384615 48:-0.481481 49:-0.851852 50:-1 51:0.703704 
0.526315789 1:-0.797753 2:-1 3:-0.346596 4:-0.6 5:-1 6:0.9 7:-1 8:-0.748326 9:-0.9 10:-0.8 11:-0.213483 12:-0.458333 13:-0.936508 14:-0.217422 15:-0.175487 16:0.136196 17:0.017214 18:0.105404 19:0.557034 20:0.5 21:-0.294308 22:-0.0984159 23:0.8 24:-0.0552423 25:0.345464 26:-0.00709664 27:-0.108309 28:0.242857 29:0.4 30:-0.16 31:0.5 32:-0.842857 33:-0.5 34:-0.8 35:-0.892857 36:-0.6 37:-0.5 38:-0.464286 39:-0.8 40:-0.454545 41:-0.866667 42:0.25 43:0.1 44:-0.789474 45:-1 46:-0.666667 47:-0.684211 48:-0.9 49:-0.8 50:-0.842593 51:0.2 
0.526315789 1:-0.640449 2:-0.851852 3:-0.202785 4:-0.259259 5:-1 6:0.555556 7:-0.777778 8:-0.0360688 9:-1 10:-0.777778 11:-0.011236 12:-0.438272 13:-0.52381 14:0.961965 15:-0.449767 16:-0.428542 17:-0.362322 18:-0.42309 19:-0.127701 20:-0.851852 21:0.922058 22:-0.557827 23:-0.851852 24:-0.242124 25:-0.977368 26:-0.453524 27:-0.600971 28:0.227513 29:1 30:-0.688889 31:-0.851852 32:-0.767196 33:0.703704 34:-0.185185 35:-0.761905 36:-1 37:-0.925926 38:-0.444444 39:-0.185185 40:-0.0909091 41:-0.111111 42:-0.814815 43:-0.62963 44:-0.461538 45:-1 46:-1 47:-0.461538 48:-1 49:-0.777778 50:-1 51:-1 
0.526315789 1:-0.932584 2:-1 3:-0.120211 4:0.285714 5:-1 6:0.428571 7:-1 8:-0.0569649 9:-0.857143 10:0.285714 11:0.18138 12:-0.0714286 13:-0.84127 14:0.528831 15:-0.492267 16:-0.328585 17:-0.331965 18:-0.581237 19:0.0310604 20:0.571429 21:0.38201 22:-0.491715 23:0.714286 24:-0.0610838 25:-0.489833 26:-0.354839 27:-0.540629 28:0.479592 29:1 30:-1 31:0.142857 32:-0.77551 33:1 34:-0.285714 35:-0.540816 36:-0.857143 37:-0.714286 38:-0.0816327 39:-0.285714 40:-0.61039 41:-0.238095 42:-0.642857 43:-0.571429 44:-1 45:-1 46:-1 47:-0.538462 48:-0.857143 49:-1 50:-1 51:0.285714 
0.526315789 1:-0.820225 2:-1 3:-0.24386 4:-0.157895 5:-1 6:0.789474 7:-0.789474 8:-0.142631 9:-0.894737 10:0.263158 11:-0.0821999 12:-0.429825 13:-0.809524 14:0.281588 15:-0.547065 16:-0.305049 17:-0.355155 18:-0.271886 19:-0.00792365 20:-0.0526316 21:0.2345 22:-0.525482 23:0.0526316 24:-0.227909 25:-0.176746 26:-0.276401 27:-0.344308 28:0.308271 29:0.894737 30:-0.557895 31:-0.473684 32:-1 33:0.473684 34:-0.684211 35:-0.548872 36:-0.894737 37:-0.789474 38:-0.43609 39:-0.684211 40:-0.425837 41:-0.578947 42:-0.868421 43:-0.157895 44:-0.666667 45:-1 46:-1 48:-0.894737 49:0.263158 50:-1 51:-0.0526316 
0.526315789 1:-0.640449 2:-0.851852 3:-0.281486 4:0.185185 5:-0.703704 6:0.333333 7:-0.851852 8:-0.108646 9:-0.555556 10:-0.777778 11:0.0387016 12:-0.839506 13:-0.492063 14:-0.189574 15:0.107161 16:0.27629 17:0.238506 18:0.131696 19:0.277477 20:0.407407 21:-0.34418 22:0.053805 23:0.851852 24:-0.135479 25:-0.0659986 26:0.359379 27:0.0320917 28:0.227513 29:0.62963 30:-0.17037 31:0.037037 32:-0.417989 33:0.185185 34:-0.333333 35:-0.761905 36:-0.333333 37:-0.925926 38:-0.84127 39:-0.333333 40:-0.89899 41:-0.802469 42:0.296296 43:-0.111111 44:-0.461538 45:-1 46:-0.52 47:-0.538462 48:-0.555556 49:-0.777778 50:-1 51:0.407407 
0.526315789 1:-0.640449 2:-0.703704 3:-0.341677 4:0.185185 5:-0.703704 6:0.259259 7:-0.925926 8:-0.256767 9:-0.851852 10:-0.555556 11:-0.011236 12:-0.358025 13:-0.587302 14:-0.356766 15:-0.106487 16:0.223282 17:0.116375 18:0.0572938 19:0.243213 20:0.333333 21:-0.509576 22:0.00217643 23:1 24:-0.118441 25:0.166412 26:0.339307 27:0.0130363 28:-0.0793651 29:0.481481 30:-0.17037 31:-0.037037 32:-0.650794 33:-0.925926 34:-0.481481 35:-0.84127 36:-0.703704 37:-0.925926 38:-0.920635 39:-0.481481 40:-0.89899 41:-0.901235 42:0.111111 43:-0.037037 44:-0.538462 45:-1 46:-0.28 47:-0.615385 48:-0.851852 49:-0.555556 50:-0.886667 51:-0.111111 
0.526315789 1:-0.258427 2:-1 3:-0.316947 4:-0.181818 5:-0.818182 6:0.272727 7:-0.954545 8:-0.314514 9:-0.818182 10:-0.909091 11:0.0806946 12:-0.458333 13:-0.333333 14:-0.256665 15:-0.187571 16:0.0941828 17:0.00312968 18:-0.0969655 19:0.230683 20:0.454545 21:-0.35673 22:-0.215125 23:0.818182 24:-0.208894 25:0.183059 26:0.219941 27:-0.165476 28:0.459416 29:0.954545 30:-0.427273 31:-0.227273 32:-0.714286 33:0.954545 34:-0.454545 35:-0.805195 36:-0.909091 37:-0.954545 38:-0.464286 39:-0.454545 40:-0.938017 41:-0.757576 42:-0.090909 44:-0.813953 45:-0.823129 46:-1 47:-0.44186 48:-0.909091 49:-0.681818 50:-0.93254 51:0.545455 
0.3795665167443384 1:-0.550562 2:-0.741935 3:-0.216443 4:-0.548387 5:-1 6:0.16129 7:-1 8:-0.257399 9:-0.935484 10:-0.870968 11:0.119246 12:-0.44086 13:-0.68254 14:-0.322586 15:-0.182276 16:0.160754 17:0.0322375 18:0.0350654 19:0.347247 20:0.677419 21:-0.418026 22:0.0150164 23:1 24:-0.0321311 25:0.271713 26:0.133195 27:-0.0468788 28:-0.0645161 29:0.935484 30:-0.187097 31:0.225806 32:-0.797235 33:0.935484 34:-0.612903 35:-0.930876 36:-0.741935 37:-0.548387 38:-0.447005 39:-0.612903 40:-0.912023 41:-0.655914 42:0.129032 43:0.0967742 44:-0.4 45:-0.231527 46:-0.793103 47:-0.4 48:-0.935484 49:-0.870968 50:-1 51:0.677419 
0.526315789 1:-0.842697 2:-0.555556 3:-0.158408 4:-0.111111 5:-0.111111 6:0.555556 7:-0.888889 8:-0.157493 9:-0.777778 10:-0.333333 11:0.138577 12:-0.638889 13:-0.68254 14:-0.168675 15:-0.0546337 16:0.105981 17:0.102337 18:-0.051423 19:0.10874 20:0.666667 21:-0.203016 22:0.0916936 23:0.888889 24:0.0289067 25:0.027767 26:-0.0136199 27:-0.00310784 28:0.380953 29:1 30:-0.222222 31:0.222222 32:-0.650794 33:1 34:-0.222222 35:-0.404762 36:-0.777778 37:-0.888889 38:-0.642857 39:-0.222222 40:-0.848485 41:-0.555555 42:-0.444445 43:-0.222222 44:-0.411765 45:-1 46:-1 47:-0.294118 48:-0.777778 49:-0.333333 50:-0.822917 51:0.666667 
0.526315789 1:-0.280899 2:-1 3:-0.278423 4:-0.255814 5:-0.813954 6:0.209302 7:-0.953488 8:-0.514804 9:-0.953488 10:-0.906977 11:0.0514763 12:-0.395349 13:-0.460317 14:-0.303474 15:-0.136489 16:0.19586 17:0.106891 18:0.0656091 19:0.18446 20:0.674419 21:-0.372504 22:-0.0899454 23:0.953488 24:-0.0874757 25:0.272609 26:0.20075 27:-0.0281272 28:0.107973 29:1 30:-0.283721 31:-0.395349 32:-0.707641 33:0.0697674 34:-0.534884 35:-0.950166 36:-0.860465 37:-0.72093 38:-0.401993 39:-0.534884 40:-0.87315 41:-0.751938 42:-0.186047 43:0.116279 44:-0.857143 45:-1 46:-0.853659 47:-0.619048 48:-0.953488 49:-0.906977 50:-0.861789 51:0.674419 
0.526315789 1:-0.168539 2:-0.833333 3:-0.15681 4:-0.0833334 5:-1 6:0.291667 7:-0.916667 8:-0.170354 9:-0.833333 10:-0.958333 11:0.101124 12:-0.503472 13:-0.428571 14:-0.195909 15:-0.276281 16:0.0385888 17:-0.0721732 18:-0.104566 19:0.106087 20:0.625 21:-0.338718 22:-0.132047 23:0.875 24:-0.194599 25:0.156274 26:0.0892474 27:-0.128556 28:0.0357143 29:0.958333 30:-0.475 32:-0.672619 33:0.958333 34:-0.583333 35:-0.955357 36:-0.875 37:-0.916667 38:-0.508928 39:-0.583333 40:-0.943182 41:-0.722222 42:-0.166667 44:-0.744681 45:-0.677019 46:-0.869565 47:-0.531915 48:-0.875 49:-0.958333 50:-1 51:0.625 
0.526315789 1:-0.797753 2:-1 3:-0.0987767 4:-0.1 5:-1 6:0.8 7:-1 8:-0.360572 9:-0.6 10:-0.9 11:0.191011 12:-0.675 13:-0.746032 14:0.0506084 15:-0.15555 16:-0.034626 17:-0.00221115 18:-0.406583 19:0.0776274 20:-0.5 21:0.0649424 22:-0.135514 23:0.1 24:0.384764 25:-0.183807 26:-0.250968 27:-0.186198 28:-0.0678571 29:0.9 30:-0.58 31:-0.8 32:-0.685714 33:0.9 34:-0.4 35:-0.892857 36:-0.5 37:-0.8 38:-0.678571 39:-0.4 40:-0.863636 41:-0.466667 42:-0.375 43:-0.6 44:-0.894737 45:-1 46:-1 47:-0.789474 48:-0.6 49:-0.9 50:-1 51:0.3 
0.526315789 1:0.348315 2:-0.943662 3:-0.197525 4:0.380282 5:-1 6:0.183099 7:-0.887324 8:0.119213 9:-0.971831 10:-0.943662 11:0.0267447 12:-0.481221 13:-0.047619 14:0.0486015 15:-0.292895 16:-0.119036 17:-0.149057 18:-0.363465 19:0.00101088 20:0.408451 21:-0.00979098 22:-0.411473 23:0.915493 24:-0.195014 25:-0.13474 26:-0.136665 27:-0.250369 28:0.137827 29:0.971831 30:-0.64507 31:-0.633803 32:-0.778672 33:0.971831 34:-0.492958 35:-0.939638 36:-0.971831 37:-0.915493 38:-0.577465 39:-0.492958 40:-0.731114 41:-0.661972 42:-0.401408 43:-0.323944 44:-0.6 45:-0.89234 46:-1 47:-0.428571 48:-0.971831 49:-0.943662 50:-1 51:0.661972 
0.526315789 1:-0.101124 2:-0.921569 3:-0.295234 4:0.176471 5:-1 6:0.490196 7:-0.72549 8:-0.0434486 9:-0.843137 10:-0.960784 11:0.0416391 12:-0.320261 13:-0.333333 14:0.079901 15:-0.3061 16:-0.154491 17:-0.182491 18:-0.250315 19:0.0858751 20:0.254902 21:0.03988 22:-0.332772 23:0.921569 24:-0.052052 25:-0.0275872 26:-0.329159 27:-0.306079 28:0.0966388 29:1 30:-0.505882 31:-0.882353 32:-0.876751 33:0.960784 34:-0.529412 35:-0.957983 36:-0.843137 37:-0.921569 38:-0.411765 39:-0.529412 40:-0.625668 41:-0.529412 42:-0.509804 43:-0.294118 44:-0.52 45:-0.54519 46:-1 47:-0.32 48:-0.843137 49:-0.960784 50:-1 51:0.45098 
0.526315789 1:-0.52809 2:-0.75 3:-0.118829 4:0.1875 5:-0.75 6:0.5 7:-1 8:-0.493709 9:-0.5625 10:-0.875 11:0.115169 12:-0.796875 13:-0.587302 14:-0.242638 15:0.0964334 16:0.219414 17:0.268556 18:-0.101581 19:0.275201 20:0.6875 21:-0.170231 22:0.217616 23:0.8125 24:0.613553 25:0.0736881 26:-0.0612902 27:0.153404 28:-0.352679 29:0.9375 30:-0.3 31:-0.9375 32:-0.508929 33:0.9375 34:-0.3125 35:-0.866071 36:-0.625 37:-0.9375 38:-0.799107 39:-0.3125 40:-0.829545 41:-0.583333 42:-0.296875 43:-0.3125 44:-0.548387 45:-0.504762 46:-0.8 47:-0.419355 48:-0.625 49:-0.875 50:-1 51:0.4375 
0.526315789 1:-0.932584 2:-1 3:-0.199778 4:-0.285714 5:-1 6:0.428571 7:-1 8:0.0361488 10:-0.857143 11:0.0850722 12:-0.690476 13:-0.873016 14:-0.50097 15:0.23813 16:0.579607 17:0.527615 18:0.388866 19:0.301683 20:0.714286 21:-0.387292 22:0.253449 23:0.857143 24:0.385556 25:0.427009 26:0.303226 27:0.401592 28:0.183674 29:1 30:0.2 31:0.714286 32:-0.77551 33:0.142857 34:-0.571429 35:-0.846939 36:-1 37:-0.714286 38:-0.693878 39:-0.571429 40:-0.805195 41:-0.619048 42:-0.285714 43:0.428571 44:-0.230769 45:-0.380952 46:-1 47:0.230769 49:-0.857143 50:-1 51:0.285714 
0.526315789 1:-0.325843 2:-1 3:-0.19818 4:-0.317073 5:-0.609756 6:0.268293 7:-0.95122 8:-0.371915 9:-0.95122 10:-0.804878 11:0.0874212 12:-0.418699 13:-0.460317 14:-0.249799 15:-0.175109 16:0.133482 17:0.0437112 18:0.00813653 19:0.158343 20:0.707317 21:-0.375512 22:-0.0938095 23:0.95122 24:-0.195474 25:0.215286 26:0.205822 27:-0.0432132 28:0.111498 29:1 30:-0.317073 31:0.0243902 32:-0.69338 33:-0.0731708 34:-0.512195 35:-0.947735 36:-0.853659 37:-0.902439 38:-0.425087 39:-0.512195 40:-0.933481 41:-0.739837 42:-0.268293 43:0.0731708 44:-0.85 45:-1 46:-0.692308 47:-0.55 48:-0.95122 49:-0.609756 50:-0.92735 51:0.609756 
0.526315789 1:-0.505618 2:-0.757576 3:-0.358775 4:-0.393939 5:-1 6:0.69697 7:-1 8:-0.0158183 9:-0.636364 10:-0.878788 11:0.111338 12:-0.737374 13:-0.396825 14:-0.139321 15:-0.0302885 16:0.211841 17:0.125309 18:-0.117653 19:0.293458 20:0.454545 21:-0.199847 22:-0.00187361 23:0.939394 24:0.12709 25:-0.0546331 26:0.286999 27:-0.172513 28:-0.435065 29:0.575758 30:-0.406061 31:-0.939394 32:-0.428571 33:0.575758 34:-0.272727 35:-0.87013 36:-0.636364 37:-0.939394 38:-0.74026 39:-0.272727 40:-0.834711 41:-0.595959 42:0.287879 43:-0.151515 44:-0.625 45:-0.760369 46:-0.806452 47:-0.625 48:-0.636364 49:-0.878788 50:-1 51:0.393939 
0.526315789 1:-0.797753 2:-0.6 3:-0.0975451 4:-0.3 5:-1 6:0.5 7:-0.7 8:-0.368317 9:-0.9 10:-0.5 11:0.191011 12:-0.35 13:-0.714286 14:-0.194851 15:-0.158652 16:-0.0637119 17:-0.0505371 18:-0.502154 19:-0.0248455 20:0.3 21:-0.136452 22:-0.252989 23:0.6 24:0.418414 25:-0.0319064 26:-0.300645 27:-0.0811556 28:-0.0678571 29:0.7 30:-0.86 31:-1 32:-0.685714 33:0.7 34:-0.4 35:-0.785714 36:-0.9 37:-0.7 38:-0.357143 39:-0.4 40:-1 41:-0.6 42:-0.5 43:-0.5 44:-0.789474 45:-0.587302 46:-1 47:-0.578947 48:-0.9 49:-0.5 50:-1 51:0.4 
0.526315789 1:-0.685393 2:-1 3:-0.244158 4:-0.28 5:-1 6:0.2 7:-1 8:-0.16715 9:-0.92 10:-0.68 11:-0.011236 12:-0.306667 13:-0.746032 14:0.0113913 15:-0.217754 16:0.0330563 17:-0.0395453 18:-0.0105811 19:0.348876 20:0.44 21:-0.124631 22:-0.0462545 23:1 24:-0.09903 25:0.00297439 26:0.0624517 27:-0.215925 28:-0.254286 29:0.92 30:-0.328 31:0.44 32:-0.622857 33:-0.2 34:-0.52 35:-0.914286 36:-0.84 37:-0.76 38:-0.314286 39:-0.52 40:-0.672727 41:-0.68 42:0.1 43:-0.12 44:-0.833333 45:-1 46:-0.478261 47:-0.666667 48:-0.92 49:-0.68 50:-1 51:0.6 
0.526315789 1:-0.775281 2:-0.809524 3:-0.200337 4:-0.619048 5:-0.619048 6:0.619048 7:-1 8:-0.0140733 9:-0.904762 10:-0.809524 11:0.0529695 12:-0.587302 13:-0.809524 14:-0.593672 15:0.191082 16:0.518269 17:0.484523 18:0.295987 19:0.404289 20:0.714286 21:-0.52628 22:0.344186 23:0.809524 24:0.564658 25:0.464721 26:0.253764 27:0.36178 28:0.183674 29:0.904762 30:0.0666667 31:0.809524 32:-0.70068 33:0.428571 34:-0.428571 35:-0.897959 36:-0.714286 37:-0.619048 38:-0.591837 39:-0.428571 40:-0.87013 41:-0.746032 42:-0.166667 43:0.142857 44:-0.7 45:-1 46:-0.68421 47:-0.7 48:-0.904762 49:-0.809524 50:-1 51:0.238095 
0.526315789 1:-0.685393 2:-1 3:-0.177825 4:-0.36 5:-0.68 6:0.2 7:-1 8:-0.249226 9:-0.92 10:-0.84 11:0.0966292 12:-0.306667 13:-0.873016 14:-0.504355 15:-0.123119 16:0.204063 17:0.123815 18:0.0757578 19:0.43595 20:0.28 21:-0.502513 22:0.0459274 23:1 24:0.194705 25:0.498057 26:-0.00258052 27:0.15737 28:-0.171429 29:0.92 30:0.00800002 31:0.28 32:-1 33:0.68 34:-0.68 35:-0.914286 36:-0.76 37:-0.36 38:-0.314286 39:-0.68 40:-0.890909 41:-0.68 42:-0.5 43:0.12 44:-0.75 45:-1 46:-0.73913 47:-0.583333 48:-0.92 49:-0.84 50:-0.876812 51:0.76 
0.526315789 1:-0.797753 2:-1 3:-0.21989 4:0.4 5:-1 6:0.3 7:-1 8:-0.195745 9:-0.7 10:-0.9 11:0.0561798 12:-0.35 13:-0.84127 14:-0.0227473 15:-0.214476 16:-0.0503232 17:-0.0794379 18:-0.30321 19:0.337687 21:0.00194584 22:-0.210833 23:0.5 24:0.172215 25:0.0533481 26:-0.309677 27:-0.221927 28:0.139286 29:0.8 30:-0.44 31:-0.2 32:-0.842857 33:0.6 34:-0.5 35:-0.892857 36:-0.7 37:-0.8 38:-0.357143 39:-0.5 40:-0.590909 41:-0.466667 42:-0.375 43:-0.3 44:-0.684211 45:-0.587302 46:-1 47:-0.368421 48:-0.7 49:-0.9 50:-1 51:0.7 
0.526315789 1:-0.797753 2:-0.8 3:-0.242945 4:-0.4 5:-1 6:0.5 7:-0.8 8:-0.191737 9:-0.9 10:-0.7 11:-0.011236 12:-0.566667 13:-0.746032 14:0.150767 15:-0.371758 16:-0.155586 17:-0.229627 18:-0.452093 19:-0.0705429 20:0.7 21:-0.0882925 22:-0.297394 23:1 24:-0.0854848 25:-0.177315 26:-0.165161 27:-0.286239 28:-0.275 29:0.9 30:-0.72 31:-0.6 32:-0.685714 33:0.1 34:-0.6 35:-0.892857 36:-0.1 37:-0.8 38:-0.571429 39:-0.6 40:-0.727273 41:-0.733333 42:-0.375 43:-0.5 44:-0.684211 45:-0.587302 46:-1 47:-0.473684 48:-0.9 49:-0.7 50:-1 51:0.7 
0.526315789 1:-0.797753 2:-0.8 3:-0.202202 4:-0.3 5:-1 6:0.2 7:-1 8:-0.230678 9:-0.7 10:-0.9 11:-0.011236 12:-0.241667 13:-0.84127 14:-0.520719 15:0.0442645 16:0.362419 17:0.332754 18:0.209427 19:0.494166 20:0.4 21:-0.670342 22:0.201175 23:1 24:0.228441 25:0.382249 26:0.331613 27:0.321866 28:-0.171429 29:0.8 30:-0.02 31:-1 32:-0.842857 33:-1 34:-0.6 35:-0.892857 36:-0.7 38:-1 39:-0.6 40:-1 41:-1 42:-0.25 43:0.1 44:-0.894737 45:-1 46:3e-07 47:-0.789474 48:-0.7 49:-0.9 50:-1 51:0.7 
0.526315789 1:-0.213483 2:-0.391304 3:0.29418 4:0.0434782 5:-1 7:-1 8:0.159864 9:-0.826087 10:-0.913043 11:0.340498 12:-0.67029 13:-0.365079 14:-0.187552 15:-0.00260229 16:0.143763 17:0.1824 18:-0.402045 19:0.0352036 20:0.913043 21:0.0147631 22:-0.00242163 23:0.913043 24:0.7501 25:-0.174399 26:-0.195792 27:0.0344506 28:-0.0993789 29:1 30:-0.756522 31:-1 32:-0.521739 33:1 34:-0.173913 35:-0.906832 36:-0.826087 37:-0.956522 38:-0.673913 39:-0.173913 40:-1 41:-0.304348 42:-0.402174 43:-0.434783 44:-0.555556 45:-1 46:-1 47:-0.511111 48:-0.826087 49:-0.913043 50:-1 51:0.608696 
0.526315789 1:-0.52809 2:-1 3:-0.116351 5:-1 6:0.4375 7:-0.6875 8:0.0934995 9:-0.875 10:-0.5625 11:0.157303 12:-0.458333 13:-0.460317 14:0.193793 15:-0.105153 16:-0.0518236 17:-0.0373304 18:-0.229985 19:0.00361425 20:0.6875 21:0.147185 22:-0.163899 23:0.9375 24:0.0507665 25:-0.227354 26:-0.205242 27:-0.243186 28:0.424107 29:1 30:-0.5625 31:-0.8125 32:-0.607143 33:1 34:-0.3125 35:-0.866071 36:-0.75 37:-0.9375 38:-0.464286 39:-0.3125 40:-0.744318 41:-0.416667 42:-0.296875 43:-0.375 44:-0.741935 45:-0.752381 46:-1 47:-0.354839 48:-0.875 49:-0.125 50:-0.905556 51:0.6875 
0.526315789 1:-0.707865 2:-0.833333 3:-0.260908 4:0.25 5:-0.333333 6:-0.0833334 7:-1 8:-0.365875 9:-0.75 10:-0.916667 11:0.0449438 12:-0.00694449 13:-0.714286 14:-0.463352 15:0.112125 16:0.436596 17:0.38187 18:0.311662 19:0.555556 20:0.583333 21:-0.533201 22:0.19443 23:0.75 24:0.267912 25:0.34633 26:0.326344 27:0.11976 28:0.122024 29:0.916667 30:0.05 31:-0.0833334 32:-0.738095 33:0.916667 34:-0.416667 35:-0.910714 36:-0.75 37:-0.0833334 38:-0.0178572 39:-0.416667 40:-0.886364 41:-0.777778 42:-0.0625 43:0.0833334 44:-0.826087 45:-1 46:-0.181818 47:-0.826087 48:-0.75 49:-0.916667 50:-1 51:0.416667 
0.526315789 1:0.280899 2:-1 3:-0.460107 4:0.0882352 5:-0.764706 6:0.588235 7:-0.588235 8:0.0187383 9:-0.852941 10:-0.735294 11:0.00859218 12:-0.426471 13:0.460317 14:0.782754 15:-0.479888 16:-0.500299 17:-0.45905 18:-0.562064 19:-0.163112 20:0.617647 21:0.739119 22:-0.656136 23:0.970588 24:-0.220762 25:-0.80215 26:-0.530171 27:-0.769714 28:0.0966388 29:0.941176 30:-0.752941 31:-0.882353 32:-0.815126 33:0.882353 34:-0.205882 35:-0.621849 36:-0.852941 37:-0.970588 38:-0.432773 39:-0.205882 40:-0.278075 41:-0.254902 42:-0.632353 43:-0.882353 44:-0.731343 45:-1 46:-1 47:-0.820896 48:-0.852941 49:-0.647059 50:-1 51:0.0882352 
0.526315789 1:-0.640449 2:-0.555556 3:-0.297771 4:0.111111 5:-0.703704 6:0.481481 7:-0.925926 8:-0.563133 9:-0.703704 10:-0.555556 11:0.0886392 12:-0.839506 13:-0.555556 14:-0.352587 15:-0.0483982 16:0.211655 17:0.134625 18:-0.0178367 19:0.308452 20:0.333333 21:-0.398951 22:0.0612994 23:1 24:0.0948498 25:0.111595 26:0.175388 27:-0.0525989 28:-0.0793651 29:0.481481 30:-0.17037 31:-0.037037 32:-0.650794 33:-0.777778 34:-0.333333 35:-0.603175 36:-0.703704 37:-0.925926 38:-0.84127 39:-0.333333 40:-0.89899 41:-0.703704 42:0.111111 43:-0.185185 44:-0.692308 45:-0.702857 46:-0.28 47:-0.769231 48:-0.703704 49:-0.555556 50:-0.886667 51:0.333333 
0.526315789 1:-0.213483 2:-0.913043 3:-0.417929 4:-0.347826 5:-1 6:0.608696 7:-0.956522 8:-0.221273 9:-0.695652 10:-0.913043 11:0.0473864 12:-0.764493 13:-0.460317 14:-0.181419 15:-0.342401 16:-0.0399053 17:-0.145335 18:-0.244457 19:0.29446 20:0.478261 21:-0.186272 22:-0.357757 23:0.956522 24:-0.0180918 25:0.095044 26:-0.0112201 27:-0.271886 28:-0.324534 29:0.826087 30:-0.391304 31:-0.956522 32:-0.931677 33:0.826087 34:-0.608696 35:-0.906832 36:-0.73913 37:-0.956522 38:-0.813665 39:-0.608696 40:-0.762846 41:-0.652174 42:-0.347826 43:-0.130435 44:-0.822222 45:-0.831169 46:-0.727273 47:-0.6 48:-0.73913 49:-0.913043 50:-0.935606 51:0.391304 
0.526315789 1:-0.910112 2:-0.733333 3:-0.262302 4:0.866667 5:-1 6:0.333333 7:-0.866667 8:-0.624259 9:-0.866667 10:-0.2 11:-0.011236 12:-0.711111 13:-0.777778 14:-0.258332 15:-0.0944096 16:0.133887 17:0.0789638 18:-0.0584315 19:0.184255 20:0.6 21:-0.287822 22:-0.0669392 23:0.733333 24:0.0915682 25:0.245784 26:0.0817205 27:-0.0480468 28:-0.0333332 29:0.866667 30:-0.44 31:-0.6 32:-0.580952 33:0.866667 34:-0.6 35:-0.857143 36:-0.466667 37:-0.733333 38:-0.714286 39:-0.6 40:-0.818182 41:-0.822222 42:-0.333333 43:0.0666666 44:-0.571429 45:-0.428571 46:-0.538461 47:-0.142857 48:-0.866667 49:-0.2 50:-1 51:0.6 
0.526315789 1:-0.797753 2:-1 3:-0.30345 4:0.3 5:-0.6 6:0.8 7:-1 8:-0.472356 9:-0.3 10:-0.9 11:-0.011236 12:-0.566667 13:-0.746032 14:-0.376829 15:0.109836 16:0.380425 17:0.339861 18:0.228281 19:0.504967 20:0.6 21:-0.509324 22:0.295043 23:0.9 24:0.406488 25:0.321229 26:0.286452 27:0.118212 28:0.346429 29:0.9 30:-0.02 31:0.8 32:-0.528571 33:-0.5 34:-0.5 35:-0.892857 36:-0.8 37:-0.6 38:-0.571429 39:-0.5 40:-0.863636 41:-0.866667 42:0.25 43:-0.1 44:-0.684211 45:-0.587302 46:-1 47:-0.578947 48:-0.8 49:-0.9 50:-1 51:0.5 
0.526315789 1:-0.685393 2:-0.68 3:-0.0787833 4:-0.2 5:-1 6:0.44 7:-0.84 8:-0.617744 9:-0.68 10:-0.52 11:0.150562 12:-0.826667 13:-0.650794 14:-0.0134368 15:-0.210311 16:-0.0674054 17:-0.0713836 18:-0.476603 19:-0.111532 20:-0.04 21:-0.00496189 22:-0.198242 23:0.76 24:0.312949 25:-0.169439 26:-0.233806 27:-0.134177 28:-0.751429 29:0.6 30:-0.776 31:-0.36 32:-0.622857 33:0.6 34:-0.44 35:-0.657143 36:-0.6 37:-0.92 38:-0.828571 39:-0.44 40:-0.890909 41:-0.573333 42:-0.4 43:-0.52 44:-0.833333 45:-1 46:-1 47:-0.75 48:-0.68 49:-0.52 50:-1 51:0.68 
0.526315789 1:-0.775281 2:-0.809524 3:-0.22179 4:-0.238095 5:-0.619048 6:0.52381 7:-1 8:0.248384 9:-0.809524 10:-0.428571 11:-0.011236 12:-0.587302 13:-0.809524 14:-0.170466 15:-0.300912 16:0.0724179 17:-0.0330297 18:-0.104312 19:0.0700942 20:0.333333 21:-0.30969 22:-0.108694 23:1 24:-0.0791364 25:0.19105 26:0.047312 27:-0.0342997 28:0.578231 29:1 30:-0.333333 31:-0.619048 32:-0.85034 33:-0.238095 34:-0.619048 35:-0.387755 36:-0.809524 37:-0.904762 38:-0.591837 39:-0.619048 40:-0.74026 41:-0.746032 42:-0.404762 43:-0.047619 44:-0.6 45:-1 46:-1 47:-0.5 48:-0.809524 49:-0.428571 50:-1 51:0.333333 
0.526315789 1:-0.707865 2:-0.833333 3:-0.280324 4:0.25 5:-0.333333 6:-0.0833334 7:-0.916667 8:-0.426237 9:-0.75 10:-0.916667 11:0.0449438 12:-0.00694449 13:-0.68254 14:-0.461 15:0.0977256 16:0.401585 17:0.342388 18:0.312475 19:0.508473 20:0.583333 21:-0.529755 22:0.17101 23:0.75 24:0.199405 25:0.361837 26:0.28871 27:0.0858174 28:0.122024 29:0.916667 30:0.05 31:-0.0833334 32:-0.738095 33:0.916667 34:-0.416667 35:-0.910714 36:-0.75 37:-0.0833334 38:-0.0178572 39:-0.416667 40:-0.886364 41:-0.777778 42:-0.0625 43:0.0833334 44:-0.73913 45:-1 46:-0.454545 47:-0.826087 48:-0.75 49:-0.916667 50:-1 51:0.583333 
0.526315789 1:-0.932584 2:-0.428572 3:-0.180361 4:0.142857 5:-1 6:0.285714 7:-1 8:-0.216334 9:-0.571429 10:-0.857143 11:0.0850722 12:0.238095 13:-0.84127 14:-0.154344 15:-0.113777 16:0.0427384 17:0.0308184 18:-0.4122 19:0.131556 20:0.857143 21:-0.294169 22:0.0189795 23:1 24:0.26994 25:-0.0348121 26:-0.16129 27:0.0881993 28:0.183674 29:0.714286 30:-0.8 31:0.285714 32:-0.326531 33:0.714286 34:-0.285714 35:-0.846939 36:-0.571429 37:0.142857 38:0.22449 39:-0.285714 40:-0.805195 41:-0.619048 42:-0.107143 43:-0.428571 44:-0.692308 45:-1 46:-0.5 47:-0.692308 48:-0.571429 49:-0.857143 50:-1 51:0.428571 
0.526315789 1:-0.662921 2:-1 3:-0.260681 4:-0.307692 5:-1 6:0.538462 7:-0.846154 8:-0.0654417 9:-0.923077 10:-0.846154 11:-0.011236 12:-0.416667 13:-0.84127 14:-0.242706 15:-0.226097 16:0.103772 17:0.0193642 18:0.0913027 19:0.267596 20:0.692308 21:-0.311971 22:-0.0405644 23:1 24:0.0901047 25:0.308546 26:-0.0630272 27:0.068411 28:-0.123626 29:1 30:-0.0307693 31:-0.384615 32:-1 33:0.384615 34:-0.769231 35:-0.917582 36:-0.615385 37:-0.692308 38:-0.423077 39:-0.769231 40:-0.685315 41:-0.692308 42:-0.519231 43:0.076923 44:-0.52 45:-1 46:-0.75 47:-0.28 48:-0.923077 49:-0.846154 50:-1 51:0.692308 
0.526315789 1:-0.977528 2:-1 3:-0.139492 5:-1 6:-0.166667 7:-0.833333 8:-0.394606 9:-0.666667 10:-0.5 11:0.213483 12:-0.819444 13:-0.777778 14:-0.164756 15:0.318511 16:0.314251 17:0.410297 18:-0.108492 19:0.124433 20:0.833333 21:-0.177882 22:0.097939 23:0.833333 24:0.295598 25:-0.172266 26:0.134409 27:0.215632 28:-0.309524 29:0.5 30:-0.533333 31:-1 32:-0.214286 33:0.5 35:-0.464286 36:-0.833333 37:-0.333333 38:-0.285714 40:-1 41:-0.555555 42:-0.166667 43:-0.333333 44:-0.636364 45:-1 46:-1 47:-0.636364 48:-0.833333 49:-0.5 50:-1 51:0.666667 
0.526315789 1:-0.393258 2:-0.684211 3:-0.222249 4:-0.210526 5:-1 6:0.842105 7:-1 8:-0.400603 9:-0.894737 10:-0.473684 11:0.024246 12:-0.600877 13:-0.238095 14:0.30015 15:-0.167909 16:-0.164358 17:-0.0531803 18:-0.458197 19:0.147608 20:0.631579 21:0.267784 22:-0.187048 23:0.947368 24:0.0964854 25:-0.461687 26:-0.126655 27:-0.337538 28:-0.291353 29:0.842105 30:-0.926316 31:-0.947368 32:-0.338346 33:0.157895 34:0.157895 35:-0.492481 36:-0.894737 37:-0.947368 38:-0.661654 39:0.157895 40:-0.569378 41:-0.508772 42:-0.473684 43:-0.631579 44:-0.891892 45:-0.587302 46:-1 47:-0.837838 48:-0.894737 49:-0.263158 50:-1 51:0.473684 
0.526315789 1:-0.52809 2:-0.75 3:-0.361234 4:-0.0625 5:-0.75 6:0.625 7:-1 8:-0.448113 9:-0.9375 10:-0.875 11:0.0730337 12:-0.526042 13:-0.428571 14:-0.191501 15:0.00588545 16:0.286934 17:0.205484 18:0.0999626 19:0.44293 20:0.1875 21:-0.395674 22:0.18354 23:0.5 24:0.0944264 25:0.000118145 26:0.458065 27:-0.0609687 28:-0.09375 29:1 30:-0.125 31:-0.125 32:-0.508929 33:0.75 34:-0.3125 35:-0.933036 36:-0.8125 37:-0.5625 38:-0.53125 39:-0.3125 40:-0.914773 41:-0.75 42:0.328125 43:-0.125 44:-0.806452 45:-1 46:-0.8 47:-0.806452 48:-0.9375 49:-0.875 50:-0.811111 51:0.125 
0.526315789 1:0.955056 2:-0.959184 3:-0.3137 4:-0.0612244 5:-0.673469 6:0.530612 7:-0.979592 8:0.0042024 9:-0.959184 10:-0.979592 11:0.030039 12:-0.491497 13:0.111111 14:-0.0193213 15:-0.183128 16:0.0298302 17:0.0149611 18:-0.0816221 19:0.199382 20:0.408163 21:-0.0427986 22:-0.0639567 23:0.979592 24:0.07861 25:0.000338943 26:-0.134562 27:-0.0866534 28:-0.0276967 29:0.938776 30:-0.142857 31:-0.77551 32:-0.83965 33:0.938776 34:-0.469388 35:-0.912536 36:-0.979592 37:-0.938776 38:-0.497084 39:-0.469388 40:-0.61039 41:-0.537415 42:-0.515306 43:-0.244898 44:-0.42268 45:-0.845238 46:-0.6875 47:-0.360825 48:-0.959184 49:-0.979592 50:-0.940972 51:0.55102 
0.526315789 1:-0.617978 2:-0.714286 3:-0.462271 5:-1 6:0.714286 7:-0.928571 8:-0.610186 9:-0.928571 10:-0.714286 11:-0.011236 12:-0.535714 13:-0.619048 14:-0.409275 15:-0.166626 16:0.221145 17:0.0406325 18:0.0644909 19:0.405541 20:0.357143 21:-0.58674 22:0.0302212 23:0.642857 24:-0.0203144 25:0.296253 26:0.351613 27:-0.0654348 28:-0.186225 29:0.928571 30:-0.0999999 31:-0.571429 32:-0.663265 33:0.928571 34:-0.714286 35:-0.923469 36:-0.857143 37:-0.571429 38:-0.540816 39:-0.714286 40:-0.902597 41:-0.904762 42:0.339286 43:0.0714286 44:-0.851852 45:-1 46:-0.538461 47:-0.777778 48:-0.928571 49:-0.714286 50:-1 51:0.357143 
0.526315789 1:-0.550562 2:-0.741935 3:-0.481746 4:-0.225806 5:-0.741936 6:0.741935 7:-1 8:-0.369015 9:-0.870968 10:-0.935484 11:-0.011236 12:-0.0215054 13:-0.555556 14:-0.436351 15:-0.045074 16:0.39636 17:0.238563 18:0.251075 19:0.341886 20:0.225806 21:-0.524734 22:0.166235 23:1 24:0.126982 25:0.280368 26:0.427471 27:0.0324161 28:-0.0645161 29:0.741935 30:0.174193 31:-0.806452 32:-0.695853 33:0.483871 34:-0.612903 35:-0.930876 36:-0.741935 37:-0.806452 38:-0.032258 39:-0.612903 40:-0.824047 41:-0.827957 42:0.209677 43:0.0967742 44:-0.733333 45:-1 46:-0.172414 47:-0.666667 48:-0.870968 49:-0.935484 50:-0.902299 51:0.677419 
0.526315789 1:-0.505618 2:-0.636364 3:-0.526808 4:0.030303 5:-1 6:0.515152 7:-1 8:-0.395946 9:-0.939394 10:-0.757576 11:-0.092952 12:-0.606061 13:-0.555556 14:-0.423168 15:-0.176897 16:0.207924 17:0.0400274 18:0.0180902 19:0.351197 20:0.333333 21:-0.58931 22:0.0941918 23:0.939394 24:0.0181506 25:0.35505 26:0.404692 27:0.00937923 28:-0.435065 29:-0.212121 30:-0.321212 31:-0.636364 32:-0.428571 33:-1 34:-0.636364 35:-0.935065 36:-0.818182 37:-0.636364 38:-0.61039 39:-0.636364 40:-0.834711 41:-1 42:0.363636 43:0.151515 44:-0.875 45:-0.760369 46:-0.612903 47:-0.75 48:-0.939394 49:-0.757576 50:-0.908602 51:0.575758 
0.526315789 1:-0.191011 2:-0.744681 3:-0.539465 4:0.148936 5:-1 6:0.276596 7:-1 8:-0.112405 9:-0.914894 10:-0.87234 11:0.0174516 12:-0.492908 13:-0.174603 14:0.0657058 15:-0.206925 16:0.0282706 17:-0.0524322 18:-0.229874 19:0.231913 20:0.361702 21:0.0499604 22:-0.275509 23:0.87234 24:-0.0761412 25:-0.213363 26:0.111187 27:-0.324127 28:0.18997 29:0.914894 30:-0.344681 31:-0.829787 32:-0.732523 33:0.914894 34:-0.404255 35:-0.863222 36:-0.914894 37:-0.957447 38:-0.49848 39:-0.404255 40:-0.59381 41:-0.546099 42:-0.148936 43:-0.191489 44:-0.478261 45:-0.834921 46:-0.6 47:-0.347826 48:-0.914894 49:-0.87234 50:-0.937037 51:0.234043 
0.526315789 1:-0.52809 2:-0.875 3:-0.399729 4:0.25 5:-1 6:0.375 7:-0.875 8:-0.513319 9:-0.8125 10:-0.9375 11:0.0308989 12:-0.729167 13:-0.587302 14:-0.378417 15:-0.0702634 16:0.27395 17:0.133528 18:0.133484 19:0.374212 20:0.4375 21:-0.519722 22:0.02721 23:0.9375 24:0.0134958 25:0.219476 26:0.308468 27:0.00870255 28:0.100446 29:1 30:0.05 31:-0.75 32:-0.803571 33:1 34:-0.6875 35:-0.933036 36:-0.8125 37:-0.875 38:-0.732143 39:-0.6875 40:-0.914773 41:-0.833333 42:0.328125 44:-0.677419 45:-0.752381 46:-0.6 47:-0.677419 48:-0.8125 49:-0.9375 50:-0.905556 51:0.4375 
0.526315789 1:-0.280899 2:-0.44186 3:0.25281 4:-0.116279 5:-1 6:0.255814 7:-1 8:0.191855 9:-0.813953 10:-0.906977 11:0.333682 12:-0.647287 13:-0.460317 14:-0.241141 15:0.0446457 16:0.209388 17:0.246162 18:-0.357438 19:0.0658236 20:0.860465 21:-0.0227052 22:0.0352818 23:0.860465 24:0.858332 25:-0.132378 26:-0.183646 27:0.0872022 28:-0.229236 29:0.674419 30:-0.674419 31:-1 32:-0.561462 33:0.674419 34:-0.209302 35:-0.900332 36:-0.813953 37:-0.953488 38:-0.651163 39:-0.209302 40:-1 41:-0.317829 42:-0.360465 43:-0.44186 44:-0.52381 45:-1 46:-1 47:-0.52381 48:-0.813953 49:-0.906977 50:-1 51:0.581395 
0.526315789 1:0.52809 2:-0.240506 3:0.045962 4:0.0379746 5:-1 6:-0.0886076 7:-1 8:-0.454234 9:-0.974684 10:-0.949367 11:0.0911677 12:-0.561182 13:-0.142857 14:-0.575968 15:-0.0461342 16:0.140643 17:0.152314 18:-0.485536 19:0.0648377 20:0.240506 21:-0.412697 22:-0.0104461 23:0.873418 24:0.79848 25:0.266433 26:-0.206778 27:0.237085 28:-0.187161 29:0.949367 30:-0.929114 31:-1 32:-0.363472 33:0.949367 34:-0.443038 35:-0.972875 36:-0.924051 37:-0.848101 38:-0.566004 39:-0.443038 40:-1 41:-0.797468 42:-0.43038 43:-0.341772 44:-0.717949 45:-0.0352508 46:-0.844156 47:-0.717949 48:-0.974684 49:-0.949367 50:-1 51:0.518987 
0.526315789 1:-0.348315 2:-0.8 3:-0.216346 4:-0.1 5:-0.6 6:0.55 7:-1 8:0.178021 9:-0.9 10:-0.95 11:0.123595 12:-0.025 13:-0.428571 14:-0.0629519 15:-0.118556 16:0.134811 17:0.0721729 18:-0.0386022 19:0.296836 20:0.25 21:-0.163572 22:-0.0379918 23:0.95 24:-0.00157261 25:-0.0799432 26:0.139678 27:-0.102236 28:0.346429 29:1 30:-0.16 31:-0.05 32:-0.764286 33:0.8 34:-0.4 35:-0.785714 36:-0.95 37:-0.7 38:-0.0357143 39:-0.4 40:-0.795455 41:-0.533333 42:-0.1875 43:-0.15 44:-0.641026 45:-1 46:-0.842105 47:-0.589744 48:-0.9 49:-0.95 50:-0.850877 51:0.25 
0.526315789 1:-0.213483 2:-0.913043 3:-0.199597 4:-0.434783 5:-0.826087 6:0.652174 7:-0.956522 8:0.0800852 9:-0.26087 10:-0.956522 11:0.0473864 12:-0.434783 13:-0.492063 14:-0.277714 15:0.0844663 16:0.317998 17:0.289722 18:0.238768 19:0.402588 20:0.26087 21:-0.432252 22:0.253449 23:0.956522 24:0.0954333 25:0.15469 26:0.210659 27:0.186997 28:-0.00931666 29:0.869565 30:0.0956521 31:-0.869565 32:-0.658385 33:0.869565 34:-0.521739 35:-0.813665 36:-0.956522 37:-0.869565 38:-0.254658 39:-0.521739 40:-0.881423 41:-0.768116 42:-0.0217393 43:-0.0434782 44:-0.555556 45:-0.831169 46:-0.863636 47:-0.555556 48:-0.913043 49:-0.956522 50:-0.613636 51:0.173913 
0.526315789 1:-0.280899 2:-1 3:-0.214483 4:-0.395349 5:-1 6:0.255814 7:-0.953488 8:-0.301497 9:-0.906977 10:-0.860465 11:0.114189 12:-0.596899 13:-0.428571 14:-0.216864 15:-0.244675 16:0.0545642 17:-0.057721 18:-0.192783 19:0.0293654 20:0.674419 21:-0.325442 22:-0.297002 23:1 24:-0.337499 25:0.191692 26:0.102026 27:-0.152098 28:0.011628 29:0.953488 30:-0.609302 31:-0.209302 32:-0.634551 33:0.953488 34:-0.534884 35:-0.800664 36:-0.906977 37:-0.953488 38:-0.601329 39:-0.534884 40:-0.936575 41:-0.689922 42:-0.244186 43:0.0697674 44:-0.619048 45:-0.637631 46:-1 47:-0.428571 48:-0.906977 49:-0.674419 50:-0.930894 51:0.674419 
0.526315789 1:-0.280899 2:-1 3:-0.196261 4:-0.116279 5:-1 6:0.44186 7:-0.906977 8:0.327429 9:-0.953488 10:-0.860465 11:0.114189 12:-0.344961 13:-0.301587 14:-0.17356 15:0.00920184 16:0.208744 17:0.177408 18:-0.0121024 19:0.117991 20:0.255814 21:-0.183463 22:-0.0773966 23:0.906977 24:-0.00763473 25:0.0397211 26:0.167142 27:-0.0354392 28:0.0598007 29:1 30:-0.413954 31:-0.162791 32:-0.488372 33:1 34:-0.348837 35:-0.950166 36:-0.906977 37:-0.72093 38:-0.352159 39:-0.348837 40:-0.87315 41:-0.627907 42:-0.0697675 43:-0.0232558 44:-0.571429 45:-0.818815 46:-1 47:-0.333333 48:-0.953488 49:-0.627907 50:-0.861789 51:0.72093 
0.1641356202409425 1:-0.393258 2:-0.894737 3:-0.112582 4:-0.631579 5:-0.789474 6:0.473684 7:-0.842105 8:0.0958896 9:-0.368421 10:-0.894737 11:0.166174 12:-0.600877 13:-0.492063 14:-0.277488 15:-0.0345282 16:0.218351 17:0.169498 18:0.0756018 19:0.160143 20:0.684211 21:-0.201907 22:-0.0314391 23:1 24:0.13527 25:0.197937 26:0.0397285 27:-0.0163547 28:-0.12782 29:0.947368 30:-0.263158 31:-0.526316 32:-0.75188 33:0.947368 34:-0.368421 35:-0.887218 36:-0.473684 37:-0.947368 38:-0.661654 39:-0.368421 40:-0.856459 41:-0.508772 42:-0.210526 43:0.0526316 44:-0.405405 45:-1 46:-0.833333 47:-0.081081 48:-0.473684 49:-0.894737 50:-1 51:0.736842 
0.526315789 1:-0.280899 2:-0.906977 3:-0.196916 4:-0.116279 5:-1 6:0.627907 7:-0.953488 8:0.0916838 9:-0.953488 10:-0.860465 11:0.114189 12:-0.344961 13:-0.365079 14:-0.118444 15:-0.0377818 16:0.184264 17:0.135098 18:0.0290191 19:0.210222 20:0.534884 21:-0.154728 22:0.0240401 23:1 24:0.0155446 25:0.0383121 26:0.131433 27:-0.0902788 28:0.107973 29:0.953488 30:-0.348837 31:-0.162791 32:-0.488372 33:0.860465 34:-0.348837 35:-0.950166 36:-0.906977 37:-0.72093 38:-0.352159 39:-0.348837 40:-0.809725 41:-0.565891 42:0.0465118 43:-0.0232558 44:-0.571429 45:-0.818815 46:-0.853659 47:-0.238095 48:-0.953488 49:-0.627907 50:-0.930894 51:0.534884 
0.526315789 1:-0.573034 2:-1 3:-0.280902 4:-0.266667 5:-1 6:0.666667 7:-0.933333 8:-0.323427 9:-0.933333 10:-0.866667 11:0.0337078 12:-0.422222 13:-0.619048 14:-0.237642 15:-0.262177 16:0.0634041 17:-0.0416931 18:-0.108707 19:0.147514 20:0.533333 21:-0.331928 22:-0.217953 23:1 24:-0.100961 25:0.246649 26:0.126882 27:-0.182387 28:0.242857 29:1 30:-0.44 31:0.133333 32:-0.790476 33:0.2 34:-0.666667 35:-0.928571 36:-0.866667 37:-0.666667 38:-0.214286 39:-0.666667 40:-0.909091 41:-0.822222 42:-0.166667 44:-0.862069 45:-0.734694 46:-1 47:-0.448276 48:-0.933333 49:-0.533333 50:-1 51:0.4 
0.526315789 1:-0.258427 2:-1 3:-0.23769 4:-0.136364 5:-1 6:0.363636 7:-0.954545 8:-0.127243 9:-0.954545 10:-0.863636 11:0.0806946 12:-0.359849 13:-0.301587 14:-0.157275 15:-0.0270663 16:0.193234 17:0.160555 18:-0.0140723 19:0.119774 20:0.227273 21:-0.151422 22:-0.109606 23:0.863636 24:-0.0166359 25:0.0441814 26:0.164516 27:-0.0556906 28:0.0357143 29:1 30:-0.427273 31:-0.409091 32:-0.5 33:1 34:-0.363636 35:-0.951299 36:-0.909091 37:-0.727273 38:-0.366883 39:-0.363636 40:-0.81405 41:-0.636364 42:-0.090909 44:-0.581395 45:-0.823129 46:-1 47:-0.209302 48:-0.954545 49:-0.636364 50:-0.865079 51:0.681818 
0.526315789 1:-0.483146 2:-0.882353 3:-0.234534 4:0.176471 5:-0.529412 6:0.588235 7:-0.941176 8:-0.269011 9:-0.588235 10:-0.941176 11:0.147389 12:-0.617647 13:-0.428571 14:-0.257004 15:0.0313119 16:0.226169 17:0.2101 18:0.0219195 19:0.230162 20:0.117647 21:-0.249325 22:0.058042 23:0.941176 24:0.153072 25:0.154513 26:0.0941178 27:0.0213653 28:0.0357143 29:0.823529 30:-0.258823 31:-0.0588236 32:-0.537815 33:0.823529 34:-0.235294 35:-0.810924 36:-0.941176 37:-0.882353 38:-0.621849 39:-0.235294 40:-0.839572 41:-0.529412 42:-0.264706 43:-0.0588236 44:-0.515152 45:-0.767857 46:-0.625 47:-0.333333 48:-0.588235 49:-0.941176 50:-1 51:0.411765 
0.526315789 1:-0.258427 2:-0.909091 3:-0.0735382 4:-0.0454546 5:-0.636364 6:0.454545 7:-0.909091 8:-0.0319405 9:-0.863636 10:-0.954545 11:0.172625 12:-0.458333 13:-0.301587 14:-0.126497 15:0.094772 16:0.212121 17:0.249282 18:-0.0436278 19:0.201852 20:0.090909 21:-0.182931 22:0.147164 23:1 24:0.335742 25:0.0394604 26:-0.00175939 27:0.0417518 28:-0.105519 29:1 30:-0.427273 31:0.181818 32:-0.428571 33:0.863636 34:-0.181818 35:-0.902597 36:-0.954545 37:-0.818182 38:-0.464286 39:-0.181818 40:-0.876033 41:-0.515151 42:-0.147727 43:-0.272727 44:-0.581395 45:-0.469388 46:-0.857143 47:-0.395349 48:-0.863636 49:-0.954545 50:-1 51:0.590909 
0.526315789 1:-0.280899 2:-0.72093 3:-0.0906291 4:-0.0697674 5:-0.627907 6:0.534884 7:-0.813953 8:0.35327 9:-0.906977 10:-0.953488 11:0.176901 12:-0.0930231 13:-0.301587 14:-0.328407 15:0.171172 16:0.344027 17:0.335409 18:0.139543 19:0.172096 20:0.395349 21:-0.269555 22:0.190835 23:0.581395 24:0.247737 25:0.145195 26:0.131433 27:0.18824 28:0.0598007 29:1 30:-0.218605 31:0.581395 32:-0.488372 33:0.953488 34:-0.162791 35:-0.900332 36:-0.953488 37:-0.72093 38:-0.10299 39:-0.162791 40:-0.87315 41:-0.503876 42:-0.0697675 43:0.0232558 44:-0.428571 45:-0.637631 46:-0.707317 47:-0.333333 48:-0.906977 49:-0.953488 50:-1 51:0.302326 
0.526315789 1:-0.438202 2:-0.888889 3:-0.44509 4:-0.0555556 5:-1 6:0.388889 7:-0.944444 8:-0.407717 9:-0.944444 10:-0.833333 11:-0.0861424 12:-0.759259 13:-0.68254 14:-0.434354 15:-0.162934 16:0.231148 17:0.0870708 18:0.0845607 19:0.319375 20:0.5 21:-0.54043 22:-0.0472662 23:0.833333 24:0.0341127 25:0.378066 26:0.229749 27:0.0532644 28:0.0932541 29:0.666667 30:0.0111111 31:-0.888889 32:-0.912698 33:-1 34:-0.944444 35:-0.821429 36:-0.944444 37:-0.888889 38:-0.761905 39:-0.944444 40:-0.848485 41:-1 42:-0.0972223 43:0.111111 44:-0.6 45:-0.781513 46:-0.647059 47:-0.542857 48:-0.944444 49:-0.833333 50:-0.75 51:0.611111 
0.526315789 1:-0.303371 2:-1 3:-0.196167 4:-0.285714 5:-1 6:0.428571 7:-0.904762 8:-0.192341 9:-0.809524 10:-0.904762 11:0.117175 12:-0.587302 13:-0.365079 14:-0.244359 15:-0.0414126 16:0.179264 17:0.129185 18:-0.0307875 19:0.212925 20:0.238095 21:-0.2922 22:-0.100129 23:0.904762 24:-0.0592582 25:0.125311 26:0.204301 27:-0.0625425 28:0.134354 29:1 30:-0.466667 31:-0.190476 32:-0.551021 33:1 34:-0.333333 35:-0.795918 36:-0.904762 37:-0.952381 38:-0.438775 39:-0.333333 40:-0.935065 41:-0.68254 42:0.0119048 44:-0.804878 45:-0.814286 46:-1 47:-0.463415 48:-0.904762 49:-0.666667 50:-0.929167 51:0.619048 
0.526315789 1:-0.685393 2:-0.68 3:-0.322278 4:0.12 5:-0.68 6:0.2 7:-0.84 8:-0.112858 9:-0.92 10:-0.68 11:-0.011236 12:-0.133333 13:-0.619048 14:-0.33733 15:-0.0621557 16:0.249123 17:0.136702 18:0.121788 19:0.247622 20:0.28 21:-0.508545 22:0.0720082 23:1 24:-0.0946001 25:0.157038 26:0.369548 27:0.0864843 28:0.0771429 29:0.6 30:-0.104 31:-0.12 32:-0.622857 33:0.04 34:-0.52 35:-0.914286 36:-0.44 37:-0.52 38:-0.485714 39:-0.52 40:-0.890909 41:-0.893333 42:0.1 43:0.04 44:-0.416667 45:-1 46:-0.478261 47:-0.583333 48:-0.92 49:-0.68 50:-0.876812 51:0.28 
0.526315789 1:-0.640449 2:-0.703704 3:-0.30226 4:0.185185 5:-1 6:0.259259 7:-1 8:-0.256767 9:-0.851852 10:-0.555556 11:-0.011236 12:-0.358025 13:-0.650794 14:-0.400654 15:-0.028379 16:0.335796 17:0.234997 18:0.154093 19:0.263934 20:0.333333 21:-0.537683 22:0.149984 23:1 24:0.0377409 25:0.220908 26:0.382796 27:0.113606 28:-0.386243 29:-0.037037 30:-0.17037 31:-0.037037 32:-0.534392 33:-0.925926 34:-0.481481 35:-0.84127 36:-0.703704 37:-0.925926 38:-0.920635 39:-0.481481 40:-0.89899 41:-0.901235 42:0.296296 43:0.037037 44:-0.769231 45:-1 46:-0.0399999 47:-0.692308 48:-0.851852 49:-0.555556 50:-0.886667 51:0.185185 
0.526315789 1:0.842697 2:-0.741935 3:-0.0933506 4:0.139785 5:-0.913978 6:0.44086 7:-0.849462 8:-0.129081 9:-0.913979 10:-0.870968 11:0.0757521 12:-0.510753 13:0.238095 14:-0.0349884 15:-0.283272 16:-0.080809 17:-0.125385 18:-0.244359 19:0.0299082 20:0.483871 21:-0.0507226 22:-0.168356 23:0.935484 24:-0.00987182 25:-0.00749013 26:-0.135831 27:-0.173198 28:0.00230426 29:0.978495 30:-0.608602 31:-0.956989 32:-0.628264 33:0.978495 34:-0.397849 35:-0.907834 36:-0.892473 37:-0.978495 38:-0.516129 39:-0.397849 40:-0.73607 41:-0.569893 42:-0.408602 43:-0.182796 44:-0.630435 45:-0.755102 46:-1 47:-0.304348 48:-0.913979 49:-0.870968 50:-0.968864 51:0.526882 
0.526315789 1:0.775281 2:-0.911111 3:-0.546157 4:0.311111 5:-0.911111 6:0.577778 7:-0.977778 8:-0.289203 9:-0.977778 10:-0.933333 11:-0.0561798 12:-0.638889 13:-0.206349 14:-0.330747 15:-0.223977 16:0.112958 17:0.00684339 18:-0.0211589 19:0.279837 20:0.177778 21:-0.423004 22:-0.176109 23:0.933333 24:-0.125098 25:0.369458 26:0.119857 27:-0.0175582 28:0.17381 29:1 30:-0.377778 31:-0.955556 32:-0.755556 33:0.688889 34:-0.733333 35:-0.97619 36:-0.755556 37:-0.955556 38:-0.642857 39:-0.733333 40:-0.787879 41:-0.881481 42:-0.361111 43:0.2 44:-0.752809 45:-0.746753 46:-0.795455 47:-0.52809 48:-0.977778 49:-0.933333 50:-0.967803 51:0.288889 
0.526315789 1:-0.955056 2:-0.384615 3:-0.180302 4:0.076923 5:-0.384615 6:0.384615 7:-1 8:-0.537197 9:-0.538462 10:-0.846154 11:0.0924805 12:-1 13:-0.873016 14:-0.843875 15:0.448018 16:0.617302 17:0.658972 18:0.586412 19:0.83812 20:0.538462 21:-0.823128 22:0.866986 23:0.538462 24:0.718873 25:0.648765 26:0.322581 27:0.814869 28:0.274725 29:0.846154 30:0.507692 31:-1 32:-0.516483 33:0.692308 34:-0.384615 35:-0.835165 36:-0.538462 37:0.692308 38:-1 39:-0.384615 40:-1 41:-0.794872 42:-0.230769 43:0.384615 44:-0.833333 45:-1 46:0.636364 47:-0.666667 48:-0.538462 49:-0.846154 50:-0.742424 51:-0.076923 
0.526315789 1:0.460674 2:-0.684211 3:-0.462121 4:0.105263 5:-1 6:0.263158 7:-0.789474 8:-0.0888234 9:-0.947368 10:-0.815789 11:-0.0467179 12:-0.429825 13:-0.111111 14:-0.0176243 15:-0.254886 16:-0.0896389 17:-0.124622 18:-0.246219 19:0.125817 20:0.526316 21:-0.130986 22:-0.123739 23:1 24:0.0535547 25:0.0517082 26:-0.243124 27:-0.119028 28:0.00845868 29:0.973684 30:-0.557895 31:-0.921053 32:-0.627819 33:0.894737 34:-0.526316 35:-0.943609 36:-0.868421 37:-0.973684 38:-0.43609 39:-0.526316 40:-0.605263 41:-0.68421 42:-0.375 43:-0.263158 44:-0.626667 45:-0.899614 46:-0.837838 47:-0.333333 48:-0.947368 49:-0.815789 50:-1 51:0.5 
0.526315789 1:-0.370787 2:-0.794872 3:-0.0698878 4:0.076923 5:-1 6:0.487179 7:-0.74359 8:0.0664388 9:-0.897436 10:-0.794872 11:0.230769 12:-0.555556 13:-0.269841 14:0.147222 15:-0.109314 16:-0.0832682 17:-0.0305653 18:-0.243436 19:0.0622232 20:0.333333 21:0.13682 22:-0.0461853 23:0.692308 24:0.198121 25:-0.236293 26:-0.293466 27:-0.222184 28:0.0622711 29:1 30:-0.497436 31:-0.692308 32:-0.59707 33:1 34:-0.179487 35:-0.78022 36:-0.897436 37:-0.948718 38:-0.56044 39:-0.179487 40:-0.79021 41:-0.316239 42:-0.358974 43:-0.487179 44:-0.578947 45:-0.397683 46:-1 47:-0.578947 48:-0.897436 49:-0.794872 50:-1 51:0.692308 
0.526315789 1:-0.910112 2:-1 3:-0.2003 4:0.333333 5:-1 6:-0.333333 7:-1 8:-0.577357 9:-0.733333 10:-0.866667 11:0.0786517 12:0.3 13:-0.809524 14:-0.166167 15:0.00483321 16:0.21699 17:0.252053 18:0.0360536 19:0.493706 20:0.0666666 21:-0.23723 22:-0.0751831 23:0.6 24:0.213106 25:0.131534 26:0.153979 27:-0.0709132 28:0.104762 29:1 30:-0.44 31:1 32:-0.790476 33:0.866667 34:-0.2 35:-0.857143 36:0.2 37:-0.2 38:-0.142857 39:-0.2 40:-0.818182 41:-0.644445 42:-0.333333 43:-0.0666666 44:-0.857143 45:-1 46:-1 47:-0.714286 48:-0.733333 49:-0.866667 50:-1 51:0.466667 
0.526315789 1:-0.573034 2:-1 3:-0.155871 4:-0.466667 5:-0.733333 6:0.466667 7:-0.866667 8:0.00304839 9:-0.933333 10:-0.866667 11:0.123595 12:-0.422222 13:-0.714286 14:-0.320402 15:-0.168546 16:0.11542 17:0.0442197 18:-0.0326404 19:0.184072 20:0.533333 21:-0.38252 22:-0.0965423 23:1 24:0.0086502 25:0.331183 26:-0.0146235 27:0.0562815 28:0.17381 29:0.933333 30:-0.253333 31:0.933333 32:-0.895238 33:0.266667 34:-0.6 35:-0.928571 36:-0.666667 37:-0.733333 38:-0.428571 39:-0.6 40:-0.909091 41:-0.644445 42:-0.583333 43:0.0666666 44:-0.724138 45:-1 46:-0.571429 47:-0.448276 48:-0.933333 49:-0.866667 50:-1 51:0.6 
0.526315789 1:-0.595506 2:-0.724138 3:-0.44956 4:0.586207 5:-0.448276 6:0.241379 7:-1 8:-0.146951 9:-0.862069 10:-0.931034 11:-0.243704 12:-0.327586 13:-0.714286 14:0.10903 15:-0.398005 16:-0.173751 17:-0.177577 18:-0.275846 19:0.195488 20:0.0344828 21:0.000822118 22:-0.204553 23:0.862069 24:0.0995395 25:-0.0371145 26:-0.303448 27:-0.199603 28:0.142857 29:1 30:-0.613793 31:-0.793103 32:-0.566503 33:0.655172 34:-0.37931 35:-0.926108 36:-0.724138 37:-0.793103 38:-0.334975 39:-0.37931 40:-0.247649 41:-0.724138 42:-0.568966 43:-0.448276 44:-0.785714 45:-0.724868 46:-1 47:-0.714286 48:-0.862069 49:-0.931034 50:-1 51:0.310345 
0.526315789 1:-0.820225 2:-0.368421 3:-0.161409 4:-0.368421 5:-1 6:0.684211 7:-1 8:-0.0469076 9:-0.157895 10:-0.894737 11:0.059728 12:-0.657895 13:-0.714286 14:-0.50097 15:0.129167 16:0.318462 17:0.348539 18:0.204434 19:0.506922 20:0.894737 21:-0.527195 22:0.324153 23:1 24:0.20387 25:0.327083 26:0.412903 27:0.336421 28:0.0902256 29:1 30:-0.410526 31:-1 32:-0.338346 33:-0.684211 34:-0.157895 35:-0.887218 36:-0.263158 37:-0.684211 38:-0.661654 39:-0.157895 40:-1 41:-0.859649 42:-0.342105 43:0.368421 44:-0.666667 45:-1 46:-0.647059 47:-0.555556 48:-0.263158 49:-0.894737 50:-0.833333 51:0.578947 
0.526315789 1:-0.662921 2:-0.692308 3:-0.0755966 4:0.076923 5:-0.692308 6:0.384615 7:-1 8:-0.36217 9:-0.923077 10:-0.846154 11:0.196197 12:1.08333e-07 13:-0.587302 14:-0.143958 15:-0.0867074 16:0.0771362 17:0.11485 18:-0.0499797 19:0.343016 20:0.307692 21:-0.125993 22:-0.0336465 23:1 24:0.0373524 25:-0.045655 26:0.107196 27:-0.0371266 28:0.274725 29:0.923077 30:-0.353846 31:0.769231 32:-0.758242 33:0.923077 34:-0.076923 35:-0.917582 36:-0.384615 37:0.076923 38:0.236264 39:-0.076923 40:-0.895105 41:-0.487179 42:-0.615385 43:-0.076923 44:-0.92 45:-1 46:-0.5 47:-0.84 48:-0.923077 49:-0.846154 50:-0.881944 51:0.307692 
0.526315789 1:-0.52809 2:-0.875 3:-0.479905 4:-0.25 5:-0.75 6:0.4375 7:-1 8:-0.316996 9:-0.875 10:-0.9375 11:0.0308989 12:-0.322917 13:-0.460317 14:-0.234703 15:-0.0154362 16:0.276547 17:0.187717 18:0.0280374 19:0.300127 20:0.125 21:-0.16719 22:-0.00475855 23:0.5 24:0.215289 25:0.0474517 26:0.204032 27:-0.128407 28:0.359375 29:1 30:-0.0375 31:-0.375 32:-0.607143 33:1 34:-0.375 35:-0.799107 36:-0.9375 37:-0.625 38:-0.330357 39:-0.375 40:-0.659091 41:-0.583333 42:0.015625 43:-0.125 44:-0.548387 45:-1 46:-1 47:-0.483871 48:-0.875 49:-0.9375 50:-0.905556 51:0.25 
0.526315789 1:0.438202 2:-0.946667 3:-0.513845 4:-0.0933334 5:-0.36 6:0.12 7:-0.92 8:-0.13322 9:-0.973333 10:-0.946667 11:0.0426966 12:-0.624445 13:0.206349 14:-0.128173 15:-0.184319 16:0.0453678 17:0.0016423 18:-0.0727347 19:0.243634 20:0.6 21:-0.149473 22:-0.178457 23:0.973333 24:-0.0365576 25:0.0620611 26:0.027527 27:-0.19706 28:-0.0885714 29:0.946667 30:-0.216 31:-0.866667 32:-0.832381 33:0.813333 34:-0.36 35:-0.971429 36:-0.573333 37:-0.893333 38:-0.685714 39:-0.36 40:-0.709091 41:-0.608889 42:-0.333333 43:-0.2 44:-0.486486 45:-0.694716 46:-0.671233 47:-0.405405 48:-0.973333 49:-0.946667 50:-1 51:0.706667 
0.526315789 1:0.52809 2:-0.696203 3:-0.379327 4:-0.0632912 5:-0.898734 6:0.417722 7:-0.873418 8:-0.18687 9:-0.974684 10:-0.949367 11:0.0399658 12:-0.314346 13:0.269841 14:-0.192405 15:-0.183872 16:0.0716832 17:-0.0129702 18:-0.140792 19:0.0937904 20:0.443038 21:-0.37692 22:-0.0760464 23:0.873418 24:-0.148962 25:0.11995 26:0.175092 27:-0.0968672 28:0.0750452 29:0.974684 30:-0.574684 31:-0.113924 32:-0.482821 33:0.848101 34:-0.468354 35:-0.918626 36:-0.974684 37:-0.696203 38:-0.321881 39:-0.468354 40:-0.930955 41:-0.831224 42:-0.113924 43:-0.0632912 44:-0.692308 45:-0.6141 46:-0.922078 47:-0.512821 48:-0.974684 49:-0.924051 50:-0.963203 51:0.341772 
0.526315789 1:-0.213483 2:-1 3:-0.520662 4:-0.173913 5:-0.826087 6:0.695652 7:-1 8:-0.385195 9:-0.956522 10:-0.782609 11:-0.011236 12:-0.246377 13:-0.52381 14:-0.461716 15:-0.0158937 16:0.323417 17:0.224628 18:0.248241 19:0.605247 20:0.347826 21:-0.453508 22:0.00784253 23:0.73913 24:0.103582 25:0.412091 26:0.304909 27:0.0608589 28:-0.0543479 29:1 30:0.0956521 31:-0.565217 32:-0.863354 33:0.956522 34:-0.608696 35:-0.953416 36:-0.826087 37:-0.869565 38:-0.534161 39:-0.608696 40:-0.762846 41:-0.768116 42:-0.184783 43:0.304348 44:-0.733333 45:-0.662338 46:-0.727273 47:-0.6 48:-0.956522 49:-0.782609 50:-0.742424 51:0.304348 
0.526315789 1:0.595506 2:-0.902439 3:-0.241739 4:0.195122 5:-1 6:0.292683 7:-0.926829 8:-0.37129 9:-0.902439 10:-0.853659 11:0.00520688 12:-0.52439 13:-0.174603 14:-0.202317 15:-0.247834 16:-0.0342994 17:-0.0736947 18:-0.255412 19:0.16915 20:0.414634 21:-0.239896 22:-0.181824 23:0.926829 24:0.0488769 25:0.164621 26:-0.0970887 27:-0.0742363 28:-0.292683 29:0.853659 30:-0.556098 31:-0.97561 32:-0.69338 33:0.780488 34:-0.560976 35:-0.843206 36:-0.902439 37:-0.97561 38:-0.608014 39:-0.560976 40:-0.800443 41:-0.772358 42:-0.451219 43:-0.170732 44:-0.82716 45:-0.814286 46:-0.775 47:-0.703704 48:-0.902439 49:-0.853659 50:-0.964583 51:0.560976 
0.526315789 1:0.370787 2:-0.888889 3:-0.0745054 4:0.305556 5:-0.888889 6:0.277778 7:-0.888889 8:0.0260699 9:-0.972222 10:-0.944444 11:0.082397 12:-0.1875 13:-0.206349 14:-0.0577794 15:-0.26742 16:-0.0685596 17:-0.120736 18:-0.29667 19:0.107505 20:0.416667 21:-0.153086 22:-0.226353 23:0.916667 24:-0.0637375 25:0.00240218 26:-0.136559 27:-0.161109 28:-0.0505953 29:0.972222 30:-0.572222 31:-0.305556 32:-0.738095 33:0.972222 34:-0.5 35:-0.940476 36:-0.972222 37:-0.916667 38:-0.196429 39:-0.5 40:-0.810606 41:-0.62963 42:-0.305555 43:-0.277778 44:-0.633803 45:-0.787755 46:-1 47:-0.408451 48:-0.972222 49:-0.944444 50:-1 51:0.416667 
0.526315789 1:-0.393258 2:-0.789474 3:-0.317756 4:-0.210526 5:-1 6:0.263158 7:-1 8:-0.115786 9:-0.947368 10:-0.894737 11:0.0952099 12:-0.486842 13:-0.460317 14:0.0388032 15:-0.313415 16:-0.0717791 17:-0.164644 18:-0.393872 19:0.129096 20:0.473684 21:-0.0546884 22:-0.20391 23:1 24:-0.00372451 25:-0.103176 26:-0.079117 27:-0.346189 28:-0.12782 29:0.894737 30:-0.631579 31:0.157895 32:-0.586466 33:0.578947 34:-0.368421 35:-0.943609 36:-0.789474 37:-0.684211 38:-0.492481 39:-0.368421 40:-0.712919 41:-0.508772 42:-0.0789473 43:-0.368421 44:-0.675676 45:-1 46:-0.833333 47:-0.513514 48:-0.947368 49:-0.894737 50:-1 51:0.631579 
0.526315789 1:0.370787 2:-0.944444 3:-0.0743865 4:0.388889 5:-0.888889 6:0.0555556 7:-0.888889 8:0.290971 9:-0.972222 10:-0.944444 11:0.082397 12:-0.247685 13:-0.206349 14:-0.104802 15:-0.261143 16:-0.0366267 17:-0.0950728 18:-0.311031 19:0.0473453 20:0.416667 21:-0.246933 22:-0.235565 23:0.916667 24:-0.0593596 25:0.0592626 26:-0.0913977 27:-0.114661 28:-0.0505953 29:0.972222 30:-0.611111 31:-0.305556 32:-0.738095 33:0.972222 34:-0.555556 35:-0.940476 36:-0.972222 37:-0.916667 38:-0.255952 39:-0.555556 40:-0.886364 41:-0.703704 42:-0.305555 43:-0.277778 44:-0.690141 45:-0.57551 46:-1 47:-0.549296 48:-0.972222 49:-0.944444 50:-1 51:0.555556 
0.526315789 1:0.505618 2:-1 3:-0.263468 4:0.076923 5:-1 6:0.282051 7:-0.666667 8:-0.388959 9:-0.871795 10:-0.820513 11:-0.0285221 12:-0.611111 13:-0.047619 14:-0.238727 15:-0.505558 16:-0.337311 17:-0.393192 18:-0.368634 19:0.189694 20:0.512821 21:-0.31247 22:-0.58521 23:0.974359 24:-0.483508 25:0.237972 26:-0.0387095 27:-0.239041 28:-0.0970696 29:1 30:-0.820513 31:-0.974359 32:-0.959707 33:0.897436 34:-0.564103 35:-0.862637 36:-0.948718 37:-0.974359 38:-0.587912 39:-0.564103 40:-0.93007 41:-0.965812 42:-0.807692 43:0.025641 44:-1 45:-1 46:-1 47:-0.688312 48:-0.948718 49:-0.820513 50:-1 51:0.589744 
0.526315789 1:0.258427 2:-1 3:-0.326758 4:0.19403 5:-1 6:0.164179 7:-0.701493 8:-0.269232 9:-0.910448 10:-0.641791 11:-0.0514842 12:-0.482587 13:0.111111 14:-0.00322934 15:-0.400549 16:-0.323466 17:-0.311104 18:-0.397611 19:0.131545 20:0.432836 21:-0.0656576 22:-0.534728 23:0.970149 24:-0.392735 25:-0.0324684 26:-0.0697158 27:-0.350146 28:0.0511728 29:0.940299 30:-0.874627 31:-0.761194 32:-0.765458 33:0.940299 34:-0.343284 35:-0.904051 36:-0.940299 37:-0.970149 38:-0.488273 39:-0.343284 40:-0.796472 41:-0.880597 42:-0.738806 43:-0.223881 44:-0.939394 45:-0.885714 46:-1 47:-0.545455 48:-0.940299 49:-0.432836 50:-1 51:0.492537 
0.526315789 1:0.460674 2:-0.736842 3:-0.415824 4:0.0789474 5:-0.894737 6:0.394737 7:-0.947368 8:-0.317999 9:-0.894737 10:-0.973684 11:0.059728 12:-0.230263 13:-0.015873 14:-0.294193 15:-0.0436223 16:0.297687 17:0.201541 18:0.130864 19:0.274719 20:0.526316 21:-0.344516 22:0.115738 23:0.868421 24:0.206897 25:0.178007 26:0.233447 27:0.0252036 28:-0.209587 29:1 30:-0.115789 31:-0.447368 32:-0.669173 33:1 34:-0.5 35:-0.915414 36:-0.973684 37:-0.947368 38:-0.238722 39:-0.5 40:-0.820574 41:-0.68421 42:0.0855263 43:0.0263158 44:-0.6 45:-0.899614 46:-0.675676 47:-0.493333 48:-0.894737 49:-0.973684 50:-0.923423 51:0.526316 
0.526315789 1:-0.213483 2:-0.73913 3:-0.476577 4:-0.0434782 5:-0.826087 6:0.565217 7:-0.913043 8:-0.405246 9:-0.956522 10:-0.869565 11:0.0766976 12:-0.105072 13:-0.174603 14:-0.127445 15:-0.168071 16:0.0881609 17:-0.00979169 18:-0.153437 19:0.194635 21:-0.142385 22:-0.18571 23:0.608696 24:-0.0145735 25:-0.0221786 26:0.118373 27:-0.244545 28:0.0357143 29:0.913043 30:-0.330435 31:-0.26087 32:-0.658385 33:0.913043 34:-0.434783 35:-0.953416 36:-0.913043 37:-0.826087 38:-0.114907 39:-0.434783 40:-0.762846 41:-0.594203 42:-0.130435 43:-0.130435 44:-0.511111 45:-0.831169 46:-0.727273 47:-0.377778 48:-0.956522 49:-0.869565 50:-0.935606 
0.526315789 1:-0.438202 2:-0.666667 3:-0.255453 4:0.222222 5:-1 6:-0.0555556 7:-1 8:-0.455959 9:-0.833333 10:-0.888889 11:0.101124 12:-0.578704 13:-0.52381 14:-0.17808 15:-0.125029 16:0.0939263 17:0.0496945 18:-0.211976 19:0.167516 20:0.722222 21:-0.0762661 22:-0.104724 23:1 24:0.195737 25:0.0241606 26:-0.10896 27:-0.091636 28:-0.367063 29:0.888889 30:-0.377778 31:-0.944444 32:-0.650794 33:0.666667 34:-0.388889 35:-0.880952 36:-0.833333 37:-0.944444 38:-0.583333 39:-0.388889 40:-0.69697 41:-0.481482 42:-0.375 43:-0.166667 44:-0.428571 45:-0.344538 46:-1 47:-0.257143 48:-0.833333 49:-0.888889 50:-0.916667 51:0.722222 
0.526315789 1:-0.258427 2:-1 3:-0.160147 4:0.090909 5:-0.818182 6:0.318182 7:-0.954545 8:-0.264992 9:-0.954545 10:-0.863636 11:0.0500511 12:-0.606061 13:-0.650794 14:-0.35413 15:-0.117488 16:0.179594 17:0.093364 18:0.0504998 19:0.374699 20:0.727273 21:-0.482104 22:-0.0697496 23:0.954545 24:-0.0518731 25:0.352231 26:0.168622 27:0.0778054 28:0.412338 29:0.954545 30:-0.3 31:0.181818 32:-0.785714 33:0.363636 34:-0.681818 35:-0.951299 36:-0.909091 37:-0.681818 38:-0.61039 39:-0.681818 40:-0.938017 41:-0.818182 42:-0.204545 43:0.181818 44:-0.627907 45:-0.469388 46:-0.857143 47:-0.627907 48:-0.954545 49:-0.863636 50:-1 51:0.681818 
